tree
version=v4
num_class=1
num_tree_per_iteration=1
label_index=0
max_feature_idx=122
objective=regression
feature_names=Column_0 Column_1 Column_2 Column_3 Column_4 Column_5 Column_6 Column_7 Column_8 Column_9 Column_10 Column_11 Column_12 Column_13 Column_14 Column_15 Column_16 Column_17 Column_18 Column_19 Column_20 Column_21 Column_22 Column_23 Column_24 Column_25 Column_26 Column_27 Column_28 Column_29 Column_30 Column_31 Column_32 Column_33 Column_34 Column_35 Column_36 Column_37 Column_38 Column_39 Column_40 Column_41 Column_42 Column_43 Column_44 Column_45 Column_46 Column_47 Column_48 Column_49 Column_50 Column_51 Column_52 Column_53 Column_54 Column_55 Column_56 Column_57 Column_58 Column_59 Column_60 Column_61 Column_62 Column_63 Column_64 Column_65 Column_66 Column_67 Column_68 Column_69 Column_70 Column_71 Column_72 Column_73 Column_74 Column_75 Column_76 Column_77 Column_78 Column_79 Column_80 Column_81 Column_82 Column_83 Column_84 Column_85 Column_86 Column_87 Column_88 Column_89 Column_90 Column_91 Column_92 Column_93 Column_94 Column_95 Column_96 Column_97 Column_98 Column_99 Column_100 Column_101 Column_102 Column_103 Column_104 Column_105 Column_106 Column_107 Column_108 Column_109 Column_110 Column_111 Column_112 Column_113 Column_114 Column_115 Column_116 Column_117 Column_118 Column_119 Column_120 Column_121 Column_122
feature_infos=[0:0.4870116419367152] [0:0.73470899027478487] [0:0.66570651993959751] none none [0:0.57880760820152199] [0:0.5605838460128183] [0:0.6599941802928061] [0:0.6299036700267745] [0:0.68166943701925264] none none [0:0.59979661999761802] none none [0:0.84536248543199555] none [0:0.80192194206277512] none [0:0.669410874395441] [0:0.78008682168433141] [0:0.6862822248563113] none none none [0:0.6299036700267745] none [0:0.78234451506035729] none none [0:0.71554251457919771] none none [0:0.68598488688950521] [0:0.64636673039262071] [0:0.74868197626680844] none [0:0.67940400599075446] [0:0.7726526389217222] [0:0.73607815454089565] [0:0.7407922707870549] [0:0.78288236046311632] [0:0.67270407710715574] [0:0.67689655812957816] [0:0.7238228600405463] [0:0.65846299986838552] [0:0.69012611854788508] none none [0:0.69495021560889081] none none [0:0.77387332598980529] [0:0.71320103524071232] [0:0.6357036343835466] [0:0.66292933138700838] [0:0.74495409970570858] none [0:0.69481370673067899] none none [0:1] [0:0.5395371969467514] [0:0.82899276506015007] [0:0.68183976291232007] [0:0.75103913112266762] [0:0.83227480496316553] [0:0.63123267429814778] none [0:0.66517190663428216] [0:0.62534523623960292] [0:0.76521320499245804] [0:0.68244730899615436] [0:0.82096603564361859] [0:0.55258981686328246] none none [0:0.6798193725921331] none [0:0.77413033466986869] [0:0.6357036343835466] [0:0.84357569267342658] [0:0.8120798449743154] none [0:0.78175704661025291] [0:0.60361421538942717] [0:0.74107841521342721] [0:0.68521561187174573] [0:0.70059139398540882] [0:0.62216975953167264] [0:0.6868182246627903] [0:0.6256712800140648] none [0:0.60841163575219293] none none none [0:0.88685717254724883] none [0:0.66447576343054982] [0:0.70095954471822142] none [0:0.78574119954859822] [0:0.66517190663428216] none [0:0.66447576343054982] [0:0.52328308146505687] [0:0.54467291419027231] [0:0.75160752007400555] [0:0.81227210609265998] [0:0.71973148312110513] [0:0.73911476229448958] [0:0.66025769478477769] [0:0.65131761829766488] [0:0.52113876109871637] [0:0.84384568004800276] [0:0.56622809494440385] [0:13] [0:5] [0:4] [0:101] [-3.795239779339203:1.8903953116257297] [-1.6852986811529391:2.9254665374919293]
tree_sizes=2858 2895 2875 2889 2873 2879 2888 2897 2890 2902 2890 2886 2904 2900 2909 2869 2893 2885 2894 2871 2886 2911 2892 2888 2882 2880 2874 2874 2889 2884 2867 2879 2886 2864 2877 2891 2869 2892 2857 2890 2897 2867 2873 2851 2898 2863 2854 2860 2851 2876 2826 2841 2870 2843 2845 2842 2851 2829 2815 2853 2874 2834 2806 2459 2783 2814 2807 2799 2774 2197 2848 2781 2820 2763 2774 2813 2813 2684 2775 2804 2486 2512 2139 2773 2751 2781 2773 2751 2225 2772 2744 2616 2736 2066 2747 2755 2789 2745 2215 2300 2774 1810 2409 2766 1752 2703 2741 1908 1815 2733 2783 2154 2779 1463 2465 1763 1722 2733 2240 2503 2379 2721 1888 2715 2546 2050 1541 2746 2146 1075 1889 1908 2734 1712 1319 1905 2710 1637 1982 2051 2741 1797 2229 2742 1729 1879 2007 2721 2622 1982 2320 2149 2725 2587 2726 2725 2726 1434 2132 2722 2067 2416 1584 2792 2319 1979 2053 2647 2741 1461 2714 1327 2475 1894 2552 1650 2721 1814 2104 1298 2751 2056 1669 2395 2072 1832 1580 2736 2554 1540 1547 1558 2554 1551 2664 2127 1897 2466 1825 1315 2341 2470 1914 1800 1648 1977 2566 1978 2765 1312 2729 1907 2486 2732 1542 2145 1487 2712 2146 2571 1242 2321 1743 1909 2547 2654 1313 2553 1794 2737 1565 1751 2076 1665 1572 2730 2066 2243 1720 2702 1666 2395 1577 1158 2742 1663 2084 1820 2734 2073 1408 1880 1905 2741 2150 1403 1157 2738 1827 1641 2409 1905 1821 1979 1247 1740 2222 1819 2404 1922 2155 2578 1835 1334 2238 1259 1418 1406 1411 1892 2479 1162 1730 2214 1713 2332 2575 1818 1415 1917 1709 1998 1727 2146 1760 1586 2746 2238 1315 2231 2385 1407 2240 1822 1715 1814 2071 2725 2156 2489 2242 2662 1915 2396 2234 2318 2237 1651 1895 2071 2579 1994 1495 2498 2078 1912 1808 1983 2415 2570 2743 2406 2754 2230 1916 2235 2159 1478 1558 1992 2412 1723 1639 2326 2059 1982 1984 2069 2064 2746 2713 1248 2728 1924 1756 2717 2637 1331 1564 1834 2185 2738 2672 2731 2158 1310 2726 2242 2161 1483 2342 2725 1901 1913 1798 2084 1582 2410 2311 2141 1569 2572 1580 1260 1920 2062 1721 1896 2393 2527 2556 2659 2732 2251 1331 2338 1998 2405 1424 2483 2659 2169 1586 1841 2342 1320 1326 2729 2258 2238 2224 1996 2264 2231 2062 1163 1319 2499 915 2668 1895 2256 2427 2740 2145 2738 2254 1337 2411 1079 1169 2319 2470 2162 2755 1763 2248 2070 1664 2313 2318 1837 1331 2341 2162 1589 1072 1167 2165 2739 2335 1332 1840 2399 2731 1604 1820 2251 1914 2133 1653 2777 1433 1666 2158 2072 2067 2003 2758 2406 2743 2398 2158 1919 1746 2503 2077 1910 2235 2406 2171 1665 1158 2494 2073 2067 2218 2004 1838 1670 2737 2395 2587 1682 1338 1650 1991 2741 1584 1174 1500 2565 1936 2258 1926 2490 2719 2747 2162 2244 2086 1847 1926 2177 2319 2054 1843 1254 1804 2064 1657 2150 1846 1503 1819 1341 1658 2157 1495 1169 1500 2313 1904 2594 2750 2239 2138 2083 2411 1656 1233 1838 2439 2729 1996 2214 2504 2416 1585 1505 2001 2758 2213 2734 2159 2741 2495 1488 1416 1838 2245 1335 1647 1413 2567 1910 2657 1923 1830 1994 1837 2165 1829 1921 2137 1567 1758 1779 1151 2068 1419 2153 1857 1751 1326 1665 2738 1514 1155 1153 2239 2247 2496 1580 2153 1315 1820 1662 2488 1488 2074 1307 2752 2245 2399 1896 2055 1733 2722 1912 1995 1732 2425 1980 2738 2260 2471 2087 2102 2080 2500 2419 2406 1410 1676 1909 2411 1586 1987 2146 1513 2322 2407 2255 2259 2138 1756 2599 2410 1233 2250 2146 2427 2162 2240 1836 2733 2003 1765 1674 1729 1675 1907 2331 2014 1595 2090 2086 1737 2009 1311 2578 1904 2257 1811 2582 1822 2736 1235 1822 2005 2093 1733 2769 1655 1912 1752 1742 1816 2245 1892 2338 1236 2328 1986 1943 1909 1987 1503 2425 2064 2668 1828 2074 2752 2091 1155 1569 1740 1985 2584 1398 1736 1900 1160 2402 1994 1830 1661 2778 1230 1989 1852 1988 1347 2520 2162 1156 2421 2152 1232 1348 1481 1813 1678 1762 2001 2084 1407 1997 1582 1911 1848 1581 1658 2315 2508 2150 1749 1565 1579 2181 1666 1586 2014 2015 2020 2012 2576 1771 1922 1676 1753 1590 2751 2667 2358 1839 2181 1914 2073 1904 1843 1942 2270 2069 1248 2769 1928 1231 1832 1157 2142 1854 2102 1667 1334 1667 2747 2719 2025 2095 1997 2486 1076 1593 1431 1234 1319 1503 1827 1753 2159 1419 2715 2771 2085 2015 2685 2336 2169 2756 1681 2436 1905 2340 1763 2331 1510 2755 1498 2579 2096 2026 1828 1493 1683 2748 2186 1925 2585 2247 1748 1418 2737 1743 1752 1989 2258 1769 1583 1895 1421 2518 2169 1928 1836 1839 1753 1753 2109 1498 1759 1854 2084 2572 2732 2008 1925 1930 1514 1921 2754 1252 2779 1269 1746 1412 1661 2767 2603 1910 2192 1417 1330 1568 1334 1266 1156 1412 1744 1916 2370 1747 1834 1508 1005 1659 1751 1260 1596 2745 1839 2751 1921 2760 2257 2259 2735 1921 1745 2668 2754 2663 1672 1836 2243 2085 2688 1845 2749 1657 1333 2732 2189 2749 1852 2649 2757 1904 1333 2711 2685 1923 2335 2088 1819 2347 2188 2724 1738 1992 2679 2422 2001 2170 2762 2096 2346 2007 2508 1917 2342 2424 1508 2324 1488 1747 2430 2351 2734 2139 2021 2510 2750 2113 2423 1691 1918 2262 1592 2069 1903 2215 1904 1646 2752 1517 2592 2731 1572 1902 1827 1828 1701 1820 1575 1742 2057 1492 1891 1489 2051 1650 2335 1562 1576 1906 2090 2746 1817 1994 1491 1653 1577 1484 2798 1506 1500 2585 2091 2737 2020 2737 2241 2346 1909 2083 2102 1822

Tree=0
num_leaves=31
num_cat=0
split_feature=121 121 121 119 119 119 30 107 117 35 119 117 15 120 122 119 35 122 5 65 115 66 122 9 115 120 5 122 116 122
split_gain=3.13225e+09 8.44412e+08 3.53711e+08 3.28721e+08 3.16945e+08 2.2724e+08 1.30659e+08 1.20905e+08 1.12377e+08 1.1372e+08 8.70084e+07 1.15229e+08 8.65384e+07 7.9769e+07 5.73867e+07 5.45259e+07 5.43819e+07 5.394e+07 4.66906e+07 4.06358e+07 3.96807e+07 3.814e+07 2.72173e+07 2.60052e+07 2.56076e+07 2.4342e+07 2.33523e+07 2.26344e+07 2.01391e+07 1.78375e+07
threshold=-0.16275069344494045 0.7848551550492151 -1.1103565419390957 1.5000000000000002 1.5000000000000002 1.0000000180025095e-35 1.0000000180025095e-35 0.33408231184569859 1.0000000180025095e-35 0.46538210008341901 1.5000000000000002 1.0000000180025095e-35 1.0000000180025095e-35 79.500000000000014 0.56071683617168677 1.5000000000000002 0.39004539018567502 -1.041699563245589 0.33414384581380735 1.0000000180025095e-35 1.0000000180025095e-35 1.0000000180025095e-35 -0.092665582429283119 0.51550199003182617 1.0000000180025095e-35 3.5000000000000004 1.0000000180025095e-35 0.020192163525941369 0.4446627070400983 0.27561272684936194
decision_type=2 2 2 2 2 2 2 2 2 2 2 2 2 2 2 2 2 2 2 2 2 2 2 2 2 2 2 2 2 2
left_child=2 3 15 5 7 -2 19 17 -5 12 21 -12 18 14 20 -1 -13 23 -10 25 -7 29 -15 28 26 -6 -19 -11 -3 -4
right_child=1 4 10 8 6 13 -8 -9 9 27 11 16 -14 22 -16 -17 -18 24 -20 -21 -22 -23 -24 -25 -26 -27 -28 -29 -30 -31
leaf_value=2026.0819979595581 2057.0819727205362 2170.1260092461121 2059.9241329193628 2132.2661605004223 2065.7292943598268 2100.3558786841245 2143.7788920223693 2101.7379732905756 2043.0574469644932 2091.0709514744549 2099.0781329734618 2016.3799315735869 2142.9537391311692 2149.1534057978361 2074.8442845402765 1995.7284069697218 2044.7047276748933 2124.7162568227072 2078.3496913159374 2043.2568092262986 2142.633739112096 2109.3523022180188 2115.149601572688 2107.1479057978358 2190.2879057978362 2095.4354057266337 2159.6654057978362 2066.6497264203567 2138.5343888486836 2042.4963580600711
leaf_weight=179 335 348 275 53 90 740 109 148 872 229 55 601 24 100 223 853 236 235 105 57 60 29 143 20 20 295 60 162 59 315
leaf_count=179 335 348 275 53 90 740 109 148 872 229 55 601 24 100 223 853 236 235 105 57 60 29 143 20 20 295 60 162 59 315
internal_value=2067.89 2093.02 2023.56 2078.1 2124.55 2093.7 2094.75 2143 2060.81 2058.09 2038.97 2028.97 2049.15 2103.39 2097.27 2000.99 2024.37 2151.23 2046.85 2082.66 2103.53 2053.37 2129.14 2162.81 2135.54 2088.49 2131.82 2080.95 2165.55 2050.62
internal_weight=0 4487 2543 3046 1441 1601 551 890 1445 1392 1511 892 1001 1266 1023 1032 837 742 977 442 800 619 243 427 315 385 295 391 407 590
internal_count=7030 4487 2543 3046 1441 1601 551 890 1445 1392 1511 892 1001 1266 1023 1032 837 742 977 442 800 619 243 427 315 385 295 391 407 590
is_linear=0
shrinkage=1


Tree=1
num_leaves=31
num_cat=0
split_feature=121 121 121 119 119 119 30 119 107 117 35 15 120 117 119 121 115 122 5 65 35 121 122 9 120 122 116 119 122 5
split_gain=2.82685e+09 7.62082e+08 3.22405e+08 2.96671e+08 2.86043e+08 2.05084e+08 1.1792e+08 1.10444e+08 1.09117e+08 1.01421e+08 1.02632e+08 7.81009e+07 7.19915e+07 6.214e+07 6.10369e+07 5.38657e+07 5.05085e+07 4.89189e+07 4.21383e+07 3.66738e+07 2.99407e+07 2.65983e+07 2.45636e+07 2.2475e+07 2.19686e+07 2.07123e+07 1.82117e+07 1.77471e+07 1.81287e+07 1.72453e+07
threshold=-0.16275069344494045 0.7848551550492151 -0.79448792577437743 1.5000000000000002 1.5000000000000002 1.0000000180025095e-35 1.0000000180025095e-35 1.5000000000000002 0.33408231184569859 1.0000000180025095e-35 0.46538210008341901 1.0000000180025095e-35 79.500000000000014 1.0000000180025095e-35 1.5000000000000002 1.0000000180025095e-35 1.0000000180025095e-35 -0.97410976307404529 0.33414384581380735 1.0000000180025095e-35 0.49000414591978231 -1.7420937742685327 -0.092665582429283119 0.51550199003182617 3.5000000000000004 0.29320975284943751 0.4446627070400983 1.0000000180025095e-35 1.1814882524605901 1.0000000180025095e-35
decision_type=2 2 2 2 2 2 2 2 2 2 2 2 2 2 2 2 2 2 2 2 2 2 2 2 2 2 2 2 2 2
left_child=2 3 7 5 8 -2 19 -1 17 -5 11 18 15 -4 27 -7 -17 23 -11 24 -16 -9 -14 26 -6 -12 -3 -15 -29 -19
right_child=1 4 13 9 6 12 -8 21 -10 10 25 -13 22 14 20 16 -18 29 -20 -21 -22 -23 -24 -25 -26 -27 -28 28 -30 -31
leaf_value=-31.831424195774066 -10.267531369799999 95.647808938542269 29.628820897882633 61.157447915706996 -2.0525760602951051 6.7300237883781566 72.094540338778714 -75.070401371098214 32.155669120195753 -23.590830800675473 20.159621905216941 71.310645548502606 77.200329544067387 -32.176682123644603 -43.606574487928214 30.811919793841003 82.256494933483651 56.337898506989347 9.9368009140377964 -23.401437270850465 -19.692634232555118 -59.181426800573938 44.896714635995721 37.295105056762701 26.168229353306657 -4.6783876884179039 66.811631107330328 -2.1479400759861793 -29.576747096551429 87.169359387849511
leaf_weight=313 335 379 55 53 90 232 109 437 148 872 269 24 100 87 394 740 51 222 105 57 196 663 143 20 295 122 64 324 74 57
leaf_count=313 335 379 55 53 90 232 109 437 148 872 269 24 100 87 394 740 51 222 105 57 196 663 143 20 295 122 64 324 74 57
internal_value=0 23.8693 -42.1162 9.69634 53.8282 24.5209 25.516 -58.037 71.3563 -6.72863 -9.31337 -17.7986 33.7263 -22.2081 -24.8602 27.9152 34.1288 79.1752 -19.9876 14.0294 -35.6623 -65.4937 58.1904 89.1412 19.5712 12.4097 91.4819 -11.7196 -7.24777 62.6368
internal_weight=0 4487 2543 3046 1441 1601 551 1413 890 1445 1392 1001 1266 1130 1075 1023 791 742 977 442 590 1100 243 463 385 391 443 485 398 279
internal_count=7030 4487 2543 3046 1441 1601 551 1413 890 1445 1392 1001 1266 1130 1075 1023 791 742 977 442 590 1100 243 463 385 391 443 485 398 279
is_linear=0
shrinkage=0.05


Tree=2
num_leaves=31
num_cat=0
split_feature=121 121 121 119 119 119 30 107 117 35 113 119 117 122 120 118 35 122 5 108 66 65 115 5 120 21 122 6 5 12
split_gain=2.55124e+09 6.87779e+08 2.91485e+08 2.67746e+08 2.58154e+08 1.85088e+08 1.06423e+08 9.84782e+07 9.1532e+07 9.26253e+07 7.26251e+07 7.12242e+07 9.36799e+07 6.85894e+07 5.70395e+07 4.47508e+07 4.46461e+07 4.46208e+07 4.28955e+07 3.47205e+07 3.45088e+07 3.30981e+07 2.25709e+07 2.15795e+07 1.98267e+07 1.90815e+07 1.88138e+07 1.74511e+07 1.80804e+07 1.65484e+07
threshold=-0.16275069344494045 0.7848551550492151 -1.1103565419390957 1.5000000000000002 1.5000000000000002 1.0000000180025095e-35 1.0000000180025095e-35 0.33408231184569859 1.0000000180025095e-35 0.46538210008341901 1.0000000180025095e-35 1.5000000000000002 1.0000000180025095e-35 0.56071683617168677 79.500000000000014 2.5000000000000004 0.39004539018567502 -1.0786264110781636 0.33414384581380735 0.60189829023154684 1.0000000180025095e-35 1.0000000180025095e-35 1.0000000180025095e-35 1.0000000180025095e-35 3.5000000000000004 0.53422247098916575 0.020192163525941369 0.50807669273649847 1.0000000180025095e-35 0.51246410867847725
decision_type=2 2 2 2 2 2 2 2 2 2 2 2 2 2 2 2 2 2 2 2 2 2 2 2 2 2 2 2 2 2
left_child=2 3 15 5 7 -2 21 17 -5 10 18 20 -13 14 19 -1 -14 27 -10 -7 -4 24 23 -19 -6 -12 -11 28 -3 -15
right_child=1 4 11 8 6 13 -8 -9 9 26 25 12 16 29 -16 -17 -18 22 -20 -21 -22 -23 -24 -25 -26 -27 -28 -29 -30 -31
leaf_value=-66.131708551469004 -9.7541551678927974 74.365276649909291 -15.6065576859652 58.099575381009089 -1.9499470196829902 34.710133679134977 68.489815393500379 30.547885974677833 -24.493294529197286 21.014016957678649 47.985348929610907 28.147379666241733 -46.453528807286219 14.054070375465123 63.088929534340927 -41.265996517279213 -20.789125597881061 51.817550761386215 9.4399608208451955 -14.885684624233761 40.260466814041138 -22.231364869234856 113.16638641357423 84.547745477585579 24.859818243899589 -8.6447592780703584 -1.2508881196563628 103.33039822665128 106.81515209491437 -27.835271512545077
leaf_weight=798 335 246 590 53 90 763 109 148 824 229 51 55 601 253 187 234 236 251 105 37 29 57 20 63 295 21 162 110 52 26
leaf_count=798 335 246 590 53 90 763 109 148 824 229 51 55 601 253 187 234 236 251 105 37 29 57 20 63 295 21 162 110 52 26
internal_value=0 22.6758 -40.0104 9.21152 51.1368 23.2948 24.2402 67.7884 -6.3922 -8.8477 -16.9087 -26.0205 -35.0636 32.04 38.2277 -60.4936 -39.2172 75.2165 -20.658 32.4163 -12.9892 13.328 61.6648 58.3844 18.5926 31.4682 11.7892 86.3103 80.0277 10.1504
internal_weight=0 4487 2543 3046 1441 1601 551 890 1445 1392 1001 1511 892 1266 987 1032 837 742 929 800 619 442 334 314 385 72 391 408 298 279
internal_count=7030 4487 2543 3046 1441 1601 551 890 1445 1392 1001 1511 892 1266 987 1032 837 742 929 800 619 442 334 314 385 72 391 408 298 279
is_linear=0
shrinkage=0.05


Tree=3
num_leaves=31
num_cat=0
split_feature=121 121 121 119 119 119 30 119 107 117 35 113 122 120 117 119 122 5 115 65 35 121 6 5 15 120 122 119 122 121
split_gain=2.30249e+09 6.20721e+08 2.66598e+08 2.4164e+08 2.32984e+08 1.67042e+08 9.60466e+07 9.00927e+07 8.88766e+07 8.26076e+07 8.35943e+07 6.55442e+07 6.19019e+07 5.14781e+07 5.03191e+07 4.96653e+07 4.12836e+07 3.87132e+07 3.22284e+07 2.98711e+07 2.42383e+07 2.24714e+07 2.21178e+07 2.16375e+07 1.80976e+07 1.78936e+07 1.72215e+07 1.58747e+07 1.62572e+07 1.5564e+07
threshold=-0.16275069344494045 0.7848551550492151 -0.79448792577437743 1.5000000000000002 1.5000000000000002 1.0000000180025095e-35 1.0000000180025095e-35 1.5000000000000002 0.33408231184569859 1.0000000180025095e-35 0.46538210008341901 1.0000000180025095e-35 0.56071683617168677 79.500000000000014 1.0000000180025095e-35 1.5000000000000002 -0.76233197677221876 0.33414384581380735 1.0000000180025095e-35 1.0000000180025095e-35 0.49000414591978231 -1.7420937742685327 0.50807669273649847 1.0000000180025095e-35 1.0000000180025095e-35 3.5000000000000004 0.29320975284943751 1.0000000180025095e-35 1.1814882524605901 1.1007237712139337
decision_type=2 2 2 2 2 2 2 2 2 2 2 2 2 2 2 2 2 2 2 2 2 2 2 2 2 2 2 2 2 2
left_child=2 3 7 5 8 -2 19 -1 16 -5 11 17 13 18 -4 27 22 -11 -7 25 -17 -9 23 -3 -13 -6 -12 -16 -29 -27
right_child=1 4 14 9 6 12 -8 21 -10 10 26 24 -14 -15 15 20 -18 -19 -20 -21 -22 -23 -24 -25 -26 29 -28 28 -30 -31
leaf_value=-28.818977721278284 -9.266447132025192 67.402989362006963 26.740010761347687 55.194595074203782 -1.8524496846728855 27.937893547206315 65.065322540003237 -68.024519316719108 29.020491151551944 -23.268629743751973 18.266478041645321 12.169310665130617 9.6428840685061665 59.934483682280558 -29.787520410822726 -39.184992474105762 51.281813872302024 8.9679634652818958 66.039457995096853 -21.119796632465565 -17.668546178754493 -53.420122240391606 95.525240086146766 98.082244873046875 65.345845540364593 15.392468556624193 -4.3819241992762832 -1.3809158668105985 -27.355330374434189 39.65432737159729
leaf_weight=313 335 344 55 53 90 740 109 437 148 824 269 48 279 187 87 394 189 105 60 57 196 663 140 69 24 195 122 324 74 100
leaf_count=313 335 344 55 53 90 740 109 437 148 824 269 48 279 187 87 394 189 105 60 57 196 663 140 69 24 195 122 324 74 100
internal_value=0 21.542 -38.0098 8.75094 48.5799 22.1301 23.0282 -52.4873 64.399 -6.07259 -8.40532 -16.0632 30.438 36.3163 -19.9066 -22.2932 71.4557 -19.6251 30.7955 12.6616 -32.0372 -59.2221 78.3505 72.5286 29.8948 17.663 11.1997 -10.4396 -6.21033 23.6168
internal_weight=0 4487 2543 3046 1441 1601 551 1413 890 1445 1392 1001 1266 987 1130 1075 742 929 800 442 590 1100 553 413 72 385 391 485 398 295
internal_count=7030 4487 2543 3046 1441 1601 551 1413 890 1445 1392 1001 1266 987 1130 1075 742 929 800 442 590 1100 553 413 72 385 391 485 398 295
is_linear=0
shrinkage=0.05


Tree=4
num_leaves=31
num_cat=0
split_feature=121 121 121 119 119 119 30 119 107 117 35 113 122 120 117 119 122 5 6 65 121 5 35 121 6 21 120 122 12 121
split_gain=2.078e+09 5.602e+08 2.40604e+08 2.18081e+08 2.10268e+08 1.50755e+08 8.6682e+07 8.13087e+07 8.02111e+07 7.45534e+07 7.54439e+07 5.91536e+07 5.58665e+07 4.6459e+07 4.5413e+07 4.48229e+07 3.87204e+07 3.49387e+07 3.1579e+07 2.69586e+07 2.62804e+07 2.49797e+07 2.1875e+07 2.03921e+07 1.6838e+07 1.64293e+07 1.61489e+07 1.57134e+07 1.4935e+07 1.48722e+07
threshold=-0.16275069344494045 0.7848551550492151 -0.79448792577437743 1.5000000000000002 1.5000000000000002 1.0000000180025095e-35 1.0000000180025095e-35 1.5000000000000002 0.33408231184569859 1.0000000180025095e-35 0.46538210008341901 1.0000000180025095e-35 0.56071683617168677 79.500000000000014 1.0000000180025095e-35 1.5000000000000002 -0.14994470926255651 0.33414384581380735 1.0000000180025095e-35 1.0000000180025095e-35 1.4165923873786521 1.0000000180025095e-35 0.49000414591978231 -1.4262251581038143 0.44571062945470891 0.53422247098916575 3.5000000000000004 -0.072829913366201038 0.51246410867847725 -1.7420937742685327
decision_type=2 2 2 2 2 2 2 2 2 2 2 2 2 2 2 2 2 2 2 2 2 2 2 2 2 2 2 2 2 2
left_child=2 3 7 5 8 -2 19 29 16 -5 11 17 13 18 -4 -16 20 -11 -7 26 21 -3 -17 -9 -22 -13 -6 -12 -14 -1
right_child=1 4 14 9 6 12 -8 23 -10 10 27 25 28 -15 15 22 -18 -19 -20 -21 24 -23 -24 -25 -26 -27 -28 -29 -30 -31
leaf_value=-56.697755512438327 -8.8031248407933251 62.100278817561644 25.40300986550071 52.434866040157821 -1.759827380180359 20.040826897555313 61.812056865167179 -62.340039880291307 27.569466268049709 -22.105198531995701 20.041514128847766 43.726403449563421 12.869222813137908 56.93775858445602 -9.917658011249662 -37.225743265442439 32.493450071811672 8.5195646068028044 39.964954702080909 -20.063807062517135 78.434133693150116 89.362942504882824 -16.785119318597172 -48.637171821906918 118.18729219658431 -8.8209870020548511 22.435985992722593 -0.046456425486366609 -26.925652195857126 -23.326575963280419
leaf_weight=38 335 456 55 53 90 430 109 612 148 824 208 51 253 187 485 394 70 105 370 57 70 103 196 488 43 21 295 183 26 275
leaf_count=38 335 456 55 53 90 430 109 612 148 824 208 51 253 187 485 394 70 105 370 57 70 103 196 488 43 21 295 183 26 275
internal_value=0 20.4649 -36.1094 8.3134 46.1509 21.0236 21.8768 -49.863 61.1791 -5.76896 -7.98505 -15.2601 28.9161 34.5005 -18.9113 -21.1785 67.8829 -18.6438 29.2557 12.0285 71.5693 67.1236 -30.4353 -56.2609 93.5614 28.4001 16.7798 10.6397 9.16074 -27.378
internal_weight=0 4487 2543 3046 1441 1601 551 1413 890 1445 1392 1001 1266 987 1130 1075 742 929 800 442 672 559 590 1100 113 72 385 391 279 313
internal_count=7030 4487 2543 3046 1441 1601 551 1413 890 1445 1392 1001 1266 987 1130 1075 742 929 800 442 672 559 590 1100 113 72 385 391 279 313
is_linear=0
shrinkage=0.05


Tree=5
num_leaves=31
num_cat=0
split_feature=121 121 121 119 119 119 30 107 117 35 15 121 119 117 120 115 65 122 35 118 66 65 9 120 118 118 122 121 122 122
split_gain=1.87539e+09 5.05581e+08 2.18098e+08 1.96818e+08 1.89767e+08 1.36057e+08 7.82305e+07 7.23906e+07 6.72844e+07 6.80881e+07 5.44292e+07 5.35091e+07 5.28457e+07 6.86841e+07 3.82331e+07 4.1362e+07 3.51397e+07 3.51344e+07 3.34827e+07 3.2788e+07 3.14327e+07 2.43302e+07 1.91077e+07 1.80487e+07 1.69193e+07 1.54451e+07 1.53645e+07 1.52985e+07 1.46442e+07 1.4449e+07
threshold=-0.16275069344494045 0.7848551550492151 -1.1103565419390957 1.5000000000000002 1.5000000000000002 1.0000000180025095e-35 1.0000000180025095e-35 0.33408231184569859 1.0000000180025095e-35 0.46538210008341901 1.0000000180025095e-35 1.0000000180025095e-35 1.5000000000000002 1.0000000180025095e-35 79.500000000000014 1.0000000180025095e-35 0.54228817451659939 -0.97410976307404529 0.39004539018567502 2.5000000000000004 1.0000000180025095e-35 1.0000000180025095e-35 0.51550199003182617 76.500000000000014 3.5000000000000004 3.5000000000000004 -0.25962745664284381 1.4165923873786521 -0.019543750842424917 0.30396169717608917
decision_type=2 2 2 2 2 2 2 2 2 2 2 2 2 2 2 2 2 2 2 2 2 2 2 2 2 2 2 2 2 2
left_child=2 3 19 5 7 -2 21 17 -5 10 16 23 20 -14 15 -13 -10 22 -15 -1 -4 25 27 24 -7 -6 -16 -3 -19 -11
right_child=1 4 12 8 6 11 -8 -9 9 29 -12 14 13 18 26 -17 -18 28 -20 -21 -22 -23 -24 -25 -26 -27 -28 -29 -30 -31
leaf_value=-56.847987405877362 -8.3629686949324249 69.784845514577668 -13.475780566264007 49.813123663416455 11.939506009472423 21.317302003051296 58.72145613224135 26.190992948171257 -12.929553383843453 16.542198603760312 59.892233467102052 25.240142893920076 24.13285931500522 -39.815307454063174 73.731027621607637 71.794278313131898 -42.810604995865006 56.213176906055402 -17.589913615530705 -35.563766027923322 39.843118115129144 -19.060616770961829 25.129952545166017 28.033886082967122 -9.462428327633635 41.00573361234845 43.287160040283204 91.357795463352033 27.613650367089679 -4.2501408391747599
leaf_weight=798 335 334 590 53 332 66 109 148 866 270 24 740 55 601 62 51 111 223 236 234 29 57 20 84 138 53 125 109 56 121
leaf_count=798 335 334 590 53 332 66 109 148 866 270 24 740 55 601 62 51 111 223 236 234 29 57 20 84 138 53 125 109 56 121
internal_value=0 19.4417 -34.3039 7.89773 43.8434 19.9724 20.7829 58.1201 -5.48051 -7.5858 -14.4971 27.4703 -22.2026 -29.9921 33.0485 28.2417 -16.3244 64.4887 -33.5486 -52.0219 -10.9778 11.4271 72.9346 8.52768 0.49572 15.9408 53.3808 75.0929 50.4728 10.1077
internal_weight=0 4487 2543 3046 1441 1601 551 890 1445 1392 1001 1266 1511 892 978 791 977 742 837 1032 619 442 463 288 204 385 187 443 279 391
internal_count=7030 4487 2543 3046 1441 1601 551 890 1445 1392 1001 1266 1511 892 978 791 977 742 837 1032 619 442 463 288 204 385 187 443 279 391
is_linear=0
shrinkage=0.05


Tree=6
num_leaves=31
num_cat=0
split_feature=121 121 121 119 119 119 30 119 119 117 35 113 122 120 117 119 5 108 121 115 5 65 35 121 87 120 119 122 121 21
split_gain=1.69254e+09 4.56287e+08 1.98987e+08 1.77628e+08 1.71265e+08 1.22791e+08 7.06031e+07 6.67303e+07 6.62783e+07 6.07242e+07 6.14495e+07 5.01118e+07 4.91196e+07 3.78952e+07 3.67696e+07 3.64747e+07 3.10974e+07 2.98031e+07 2.82531e+07 2.88809e+07 3.25648e+07 2.1958e+07 1.76827e+07 1.76591e+07 1.69444e+07 1.42452e+07 1.41986e+07 1.45781e+07 1.40724e+07 1.3827e+07
threshold=-0.16275069344494045 0.7848551550492151 -0.79448792577437743 1.5000000000000002 1.5000000000000002 1.0000000180025095e-35 1.0000000180025095e-35 1.0000000180025095e-35 1.5000000000000002 1.0000000180025095e-35 0.46538210008341901 1.0000000180025095e-35 0.56071683617168677 79.500000000000014 1.0000000180025095e-35 1.5000000000000002 0.33414384581380735 0.60189829023154684 1.4165923873786521 1.0000000180025095e-35 1.0000000180025095e-35 1.0000000180025095e-35 0.49000414591978231 -1.7420937742685327 0.403740872400978 3.5000000000000004 1.0000000180025095e-35 1.1814882524605901 1.1007237712139337 0.53422247098916575
decision_type=2 2 2 2 2 2 2 2 2 2 2 2 2 2 2 2 2 2 2 2 2 2 2 2 2 2 2 2 2 2
left_child=2 3 8 5 7 -2 21 24 -1 -5 11 16 13 17 -4 26 -11 -7 19 20 -9 25 -17 -10 -3 -6 -16 -28 -27 -13
right_child=1 4 14 9 6 12 -8 18 23 10 -12 29 -14 -15 15 22 -18 -19 -20 -21 -22 -23 -24 -25 -26 28 27 -29 -30 -31
leaf_value=-24.795792290958733 -7.944820133892458 19.983997875240679 22.926216847896576 47.322465428766215 -2.2688109987891383 28.721520571314962 55.785383338228286 49.749401351354457 -58.67606928495848 -20.152198474904868 9.6023537837635828 40.473106713388482 7.5726931047268664 51.597200506847891 -27.128472788580538 -33.444202976057376 8.7400644738333568 -17.228182163754024 86.784172683715823 105.11928514049899 79.782258251735144 -18.107585719593782 -15.066367204274451 -45.729528365559531 56.502890014648443 12.635766841692803 -0.25739322230219841 -24.853917807501716 35.705773215293888 -7.7334599267868773
leaf_weight=313 335 141 55 53 90 763 109 465 437 824 391 51 279 187 87 394 105 37 100 31 112 57 196 663 41 195 324 74 100 21
leaf_count=313 335 141 55 53 90 763 109 465 437 824 391 51 279 187 87 394 105 37 100 31 112 57 196 663 41 195 324 74 100 21
internal_value=0 18.4696 -32.5887 7.50284 41.6512 18.9738 19.7438 55.2141 -45.0964 -5.20648 -7.20651 -13.7722 26.0968 31.3331 -16.9485 -18.9886 -16.8867 26.5963 62.1556 58.1049 55.579 10.8557 -27.339 -50.8728 28.2108 15.1438 -8.83044 -4.83062 20.4561 26.4129
internal_weight=0 4487 2543 3046 1441 1601 551 890 1413 1445 1392 1001 1266 987 1130 1075 929 800 708 608 577 442 590 1100 182 385 485 398 295 72
internal_count=7030 4487 2543 3046 1441 1601 551 890 1413 1445 1392 1001 1266 987 1130 1075 929 800 708 608 577 442 590 1100 182 385 485 398 295 72
is_linear=0
shrinkage=0.05


Tree=7
num_leaves=31
num_cat=0
split_feature=121 119 121 121 30 119 65 119 119 117 119 15 122 37 122 121 115 5 120 119 122 35 120 120 115 108 35 121 87 115
split_gain=1.53255e+09 3.72699e+08 3.0786e+08 1.76051e+08 1.11542e+08 9.39294e+07 7.33858e+07 6.02241e+07 5.98162e+07 5.02684e+07 6.49384e+07 4.98124e+07 4.45579e+07 4.95141e+07 3.58645e+07 2.54984e+07 2.6065e+07 2.93897e+07 2.53487e+07 2.26198e+07 2.55284e+07 2.16965e+07 2.02823e+07 1.99272e+07 1.85704e+07 1.81022e+07 1.69568e+07 1.59374e+07 1.52923e+07 1.40116e+07
threshold=1.0000000180025095e-35 1.5000000000000002 -0.79448792577437743 0.7848551550492151 1.0000000180025095e-35 1.0000000180025095e-35 0.49757411449816696 1.0000000180025095e-35 1.5000000000000002 1.0000000180025095e-35 1.5000000000000002 1.0000000180025095e-35 -0.21794349230138052 1.0000000180025095e-35 -0.25962745664284381 1.4165923873786521 1.0000000180025095e-35 1.0000000180025095e-35 98.500000000000014 1.0000000180025095e-35 0.56071683617168677 0.39004539018567502 79.500000000000014 79.500000000000014 1.0000000180025095e-35 0.60189829023154684 0.46538210008341901 -1.7420937742685327 0.403740872400978 1.0000000180025095e-35
decision_type=2 2 2 2 2 2 2 2 2 2 2 2 2 2 2 2 2 2 2 2 2 2 2 2 2 2 2 2 2 2
left_child=2 3 8 5 6 -2 11 28 -1 -4 19 12 13 -3 22 16 17 -9 21 -11 25 -12 24 29 -7 -21 -14 -10 -5 -16
right_child=1 4 9 7 -6 14 -8 15 27 10 18 -13 26 -15 23 -17 -18 -19 -20 20 -22 -23 -24 -25 -26 -27 -28 -29 -30 -31
leaf_value=-23.556003006883323 -4.9820453416900481 12.370668329907843 26.059843894981203 18.984797763655372 52.996114314368015 33.061698454564109 -36.062736462402341 47.261930418988712 -55.742268004952088 -19.483045782472779 -31.530598413944247 72.440753760704624 -14.753270719077561 -43.918492759146346 14.596152533101341 82.444963764190675 99.86332200573338 75.793144211598801 9.873567535700623 11.184359882172851 -12.640162484832411 -14.330065461845264 67.464617120065995 39.300163891983033 74.154877777099614 -20.231213778715869 3.2824964594958455 -43.443051793025091 53.677745037544064 56.468269275483635
leaf_weight=313 238 829 84 141 109 329 125 465 437 184 524 26 364 41 411 100 31 112 54 388 246 282 62 125 30 52 203 663 41 21
leaf_count=313 238 829 84 141 109 329 125 465 437 184 524 26 364 41 411 100 31 112 54 388 246 282 62 125 30 52 203 663 41 21
internal_value=0 21.5048 -25.3433 35.5555 4.06775 23.1878 0.70932 52.4534 -42.8416 -11.7132 -13.5473 3.85116 2.61015 9.71796 30.0431 59.0479 55.1997 52.8001 -23.2906 -3.91592 0.259517 -25.5125 41.0564 21.7188 36.4957 7.47161 -8.29602 -48.3292 26.8002 16.6316
internal_weight=0 3803 3227 2106 1697 1216 1588 890 1413 1814 1730 1463 1437 870 978 708 608 577 860 870 686 806 421 557 359 440 567 1100 182 432
internal_count=7030 3803 3227 2106 1697 1216 1588 890 1413 1814 1730 1463 1437 870 978 708 608 577 860 870 686 806 421 557 359 440 567 1100 182 432
is_linear=0
shrinkage=0.05


Tree=8
num_leaves=31
num_cat=0
split_feature=121 121 121 119 119 119 30 119 65 117 12 9 108 66 117 119 35 15 35 9 45 122 118 65 87 118 120 122 122 12
split_gain=1.38472e+09 3.72317e+08 1.62739e+08 1.45556e+08 1.38226e+08 9.98315e+07 5.69914e+07 5.43522e+07 5.29297e+07 4.71537e+07 4.52017e+07 4.59312e+07 4.78392e+07 3.98516e+07 3.77289e+07 3.99252e+07 3.66382e+07 3.69952e+07 2.50151e+07 2.42549e+07 2.51872e+07 2.55614e+07 2.36919e+07 1.87729e+07 1.38013e+07 1.35794e+07 1.29683e+07 1.27461e+07 1.25578e+07 1.05576e+07
threshold=-0.16275069344494045 0.7848551550492151 -1.1103565419390957 1.5000000000000002 1.5000000000000002 1.0000000180025095e-35 1.0000000180025095e-35 1.0000000180025095e-35 0.54228817451659939 1.0000000180025095e-35 0.48704823602295316 0.55355533444323668 0.48591731649828723 1.0000000180025095e-35 1.0000000180025095e-35 1.5000000000000002 0.46538210008341901 1.0000000180025095e-35 0.39004539018567502 0.51550199003182617 1.0000000180025095e-35 -1.0534093884982387 2.5000000000000004 1.0000000180025095e-35 0.403740872400978 3.5000000000000004 98.500000000000014 -0.072829913366201038 0.27561272684936194 0.51246410867847725
decision_type=2 2 2 2 2 2 2 2 2 2 2 2 2 2 2 2 2 2 2 2 2 2 2 2 2 2 2 2 2 2
left_child=2 3 22 5 7 -2 23 24 9 -5 11 12 -7 14 -4 28 17 -11 26 20 21 -9 -1 25 -3 -6 -17 -18 -16 -12
right_child=1 4 13 8 6 10 -8 19 -10 16 29 -13 -14 -15 15 18 27 -19 -20 -21 -22 -23 -24 -25 -26 -27 -28 -29 -30 -31
leaf_value=-48.884075084485509 -7.0885368637540456 18.035557702838954 20.476913492029365 44.270358108799414 10.192356046944498 32.095191395295515 50.346308172295949 70.772735926919367 -37.879744081239444 -11.158938865931425 7.0544801523387441 -25.554269247055057 -6.9892894161448771 39.024348581248319 -3.9570739310004495 -35.694014524585668 17.3681365617336 51.773323694864906 -14.953289945650909 12.100031070709228 31.879026149231709 49.932697074324921 -30.791504752330294 -16.801089584618285 50.993858225752668 37.446599139807361 1.090662956237793 -0.72402188767948772 -18.579911525665768 -21.275633422695861
leaf_weight=798 335 141 55 53 332 992 109 334 111 866 100 40 85 29 275 576 208 24 236 30 81 263 234 57 41 53 25 183 315 49
leaf_count=798 335 141 55 53 332 992 109 334 111 866 100 40 85 29 275 576 208 24 236 30 81 263 234 57 41 53 25 183 315 49
internal_value=0 16.7058 -29.4766 6.79945 37.6461 17.1833 17.9648 49.8307 -4.70542 -1.94503 23.6059 27.0566 29.0105 -19.0234 -20.1593 -21.7255 -3.85715 -9.46189 -28.7473 56.0955 58.0422 61.5919 -44.7817 9.97934 25.4602 13.9442 -34.1639 8.90045 -11.7642 -2.26213
internal_weight=0 4487 2543 3046 1441 1601 551 890 1445 1334 1266 1117 1077 1511 1482 1427 1281 890 837 708 678 597 1032 442 182 385 601 391 590 149
internal_count=7030 4487 2543 3046 1441 1601 551 890 1445 1334 1266 1117 1077 1511 1482 1427 1281 890 837 708 678 597 1032 442 182 385 601 391 590 149
is_linear=0
shrinkage=0.05


Tree=9
num_leaves=31
num_cat=0
split_feature=121 119 121 122 30 119 65 66 119 38 37 122 117 119 6 121 7 115 5 120 120 115 119 122 35 119 108 121 120 122
split_gain=1.25871e+09 3.03496e+08 2.49896e+08 1.44625e+08 9.05115e+07 7.95596e+07 6.01694e+07 5.38346e+07 4.94536e+07 4.41951e+07 4.60827e+07 4.43547e+07 4.07514e+07 5.23846e+07 3.25005e+07 3.19047e+07 3.02572e+07 2.99104e+07 3.27341e+07 2.2659e+07 2.15484e+07 1.98644e+07 1.93574e+07 2.12198e+07 1.77445e+07 1.57759e+07 1.54688e+07 1.2899e+07 1.10755e+07 1.0856e+07
threshold=1.0000000180025095e-35 1.5000000000000002 -0.79448792577437743 -0.25962745664284381 1.0000000180025095e-35 1.0000000180025095e-35 0.49757411449816696 0.63098810903678693 1.0000000180025095e-35 1.0000000180025095e-35 1.0000000180025095e-35 -0.27950617653406062 1.0000000180025095e-35 1.5000000000000002 0.50807669273649847 -1.4262251581038143 1.0000000180025095e-35 1.0000000180025095e-35 1.0000000180025095e-35 79.500000000000014 98.500000000000014 1.0000000180025095e-35 1.0000000180025095e-35 0.56071683617168677 0.49000414591978231 1.5000000000000002 0.60189829023154684 1.4165923873786521 78.500000000000014 0.84180645577044688
decision_type=2 2 2 2 2 2 2 2 2 2 2 2 2 2 2 2 2 2 2 2 2 2 2 2 2 2 2 2 2 2
left_child=2 3 7 5 6 16 9 15 -5 10 11 -3 -4 22 17 -1 -2 18 -7 21 24 -10 -14 26 -15 28 -24 -16 -17 -26
right_child=1 4 12 8 -6 14 -8 -9 19 -11 -12 -13 13 20 27 25 -18 -19 -20 -21 -22 -23 23 -25 29 -27 -28 -29 -30 -31
leaf_value=-47.628519455918124 6.1505078395870001 15.954451363704436 23.322285854816439 -11.343611084633862 47.828992406162655 36.995026340985412 -32.567966735839846 42.716916351318361 13.619133549736393 -25.110156191412997 -42.427227523479061 -2.7722542298143011 -18.089422677522119 -28.070131486131807 61.587979419414822 -24.990702579535693 41.028621826171879 79.685145418984561 62.342688171773027 39.031864658063348 9.487202293122257 57.733714831316917 10.181460750173088 -11.586785690613638 -4.9897854468627285 -37.542488041354893 -18.859233226225928 97.387844848632824 13.998594088554382 -27.701378832365339
leaf_weight=682 180 742 84 145 109 657 125 20 465 123 47 551 184 559 156 204 95 56 158 137 54 27 388 246 171 487 52 30 20 76
leaf_count=682 180 742 84 145 109 657 125 20 465 123 47 551 184 559 156 204 95 56 158 137 54 27 388 246 171 487 52 30 20 76
internal_value=0 19.4891 -22.9678 32.1684 3.75393 42.1565 0.728631 -38.7329 14.9797 3.57352 6.20643 7.97424 -10.6877 -12.339 48.3894 -39.9023 18.1993 44.3378 41.9091 21.0478 -21.0901 16.0401 -3.68859 0.174019 -23.1387 -32.4913 6.74938 67.3622 -21.5095 -11.978
internal_weight=0 3803 3227 2106 1697 1332 1588 1413 774 1463 1340 1293 1814 1730 1057 1393 275 871 815 629 860 492 870 686 806 711 440 186 224 247
internal_count=7030 3803 3227 2106 1697 1332 1588 1413 774 1463 1340 1293 1814 1730 1057 1393 275 871 815 629 860 492 870 686 806 711 440 186 224 247
is_linear=0
shrinkage=0.05


Tree=10
num_leaves=31
num_cat=0
split_feature=121 119 121 121 30 119 65 66 107 15 117 119 38 37 121 122 122 119 120 120 119 12 9 35 6 5 115 120 120 119
split_gain=1.13599e+09 2.73905e+08 2.25531e+08 1.33168e+08 8.16866e+07 6.85803e+07 5.43029e+07 4.85857e+07 4.51526e+07 4.15563e+07 3.67782e+07 4.72771e+07 3.66977e+07 3.9503e+07 2.90689e+07 2.86252e+07 2.68479e+07 1.94665e+07 1.94474e+07 1.87198e+07 1.74701e+07 1.99807e+07 2.29342e+07 1.60144e+07 1.58789e+07 1.40816e+07 1.36325e+07 1.26394e+07 1.18299e+07 9.89587e+06
threshold=1.0000000180025095e-35 1.5000000000000002 -0.79448792577437743 0.7848551550492151 1.0000000180025095e-35 1.0000000180025095e-35 0.49757411449816696 0.63098810903678693 0.33408231184569859 1.0000000180025095e-35 1.0000000180025095e-35 1.5000000000000002 1.0000000180025095e-35 1.0000000180025095e-35 -1.7420937742685327 1.0000000180025095e-35 -0.76233197677221876 1.5000000000000002 98.500000000000014 79.500000000000014 1.0000000180025095e-35 0.51246410867847725 0.55355533444323668 0.49000414591978231 0.50807669273649847 1.0000000180025095e-35 1.0000000180025095e-35 79.500000000000014 78.500000000000014 1.0000000180025095e-35
decision_type=2 2 2 2 2 2 2 2 2 2 2 2 2 2 2 2 2 2 2 2 2 2 2 2 2 2 2 2 2 2
left_child=2 3 7 5 6 -2 9 14 16 12 -4 20 13 -3 -1 19 24 28 23 26 -12 22 -22 -13 25 -5 -7 -17 -16 -18
right_child=1 4 10 8 -6 15 -8 -9 -10 -11 11 18 -14 -15 17 27 29 -19 -20 -21 21 -23 -24 -25 -26 -27 -28 -29 -30 -31
leaf_value=-47.948371202569263 -4.2668799827078816 6.3757214067061305 22.156171527722233 46.778518395091218 45.437543229881783 26.581407190331433 -30.939567333984378 40.581069183349612 20.039748155104149 66.042976027268637 -17.18495132845381 -26.666625051187062 -23.854648083593787 -40.305865543446643 -24.21618823436981 10.631961579644795 0.75949927330017086 -37.239413497959383 9.0128421500877103 53.528830182293191 6.5174363963278452 -20.61318959467339 -30.629693128797744 -11.379069966385481 70.398560616629467 71.528028311245677 59.426609723708218 31.469856173866674 14.952291633969262 37.953213630766562
leaf_weight=475 238 1267 84 344 109 446 125 20 148 26 184 559 123 47 235 311 20 662 54 92 542 99 45 247 140 69 34 95 21 169
leaf_count=475 238 1267 84 344 109 446 125 20 148 26 184 559 123 47 235 311 20 662 54 92 542 99 45 247 140 69 34 95 21 169
internal_value=0 18.5147 -21.8194 30.56 3.56624 19.8036 0.6922 -36.7963 45.2564 3.39485 -10.1533 -11.7221 2.26134 4.70598 -37.9072 25.6612 50.2862 -32.7117 -20.0356 32.8679 -3.50416 0.165319 3.6697 -21.9817 55.8464 50.9134 28.9079 15.5078 -21.0031 34.0174
internal_weight=0 3803 3227 2106 1697 1216 1588 1413 890 1463 1814 1730 1437 1314 1393 978 742 918 860 572 870 686 587 806 553 413 480 406 256 189
internal_count=7030 3803 3227 2106 1697 1216 1588 1413 890 1463 1814 1730 1437 1314 1393 978 742 918 860 572 870 686 587 806 553 413 480 406 256 189
is_linear=0
shrinkage=0.05


Tree=11
num_leaves=31
num_cat=0
split_feature=121 121 121 119 119 119 117 35 119 30 12 9 108 113 66 117 119 5 35 9 121 115 118 65 120 118 115 122 122 120
split_gain=1.02711e+09 2.8189e+08 1.18163e+08 1.07631e+08 1.00411e+08 7.25393e+07 4.38973e+07 4.21163e+07 4.1187e+07 4.06016e+07 3.68687e+07 3.88608e+07 4.03907e+07 3.39517e+07 3.11677e+07 2.93187e+07 3.00627e+07 2.49066e+07 2.11596e+07 2.08336e+07 2.12306e+07 2.03385e+07 1.85658e+07 1.55385e+07 1.19565e+07 1.2153e+07 1.18887e+07 1.21286e+07 1.11027e+07 1.08242e+07
threshold=-0.16275069344494045 0.7848551550492151 -1.1103565419390957 1.5000000000000002 1.5000000000000002 1.0000000180025095e-35 1.0000000180025095e-35 0.46538210008341901 1.0000000180025095e-35 1.0000000180025095e-35 0.48704823602295316 0.55355533444323668 0.48591731649828723 1.0000000180025095e-35 1.0000000180025095e-35 1.5000000000000002 1.5000000000000002 0.33414384581380735 0.39004539018567502 0.51550199003182617 1.4165923873786521 1.0000000180025095e-35 2.5000000000000004 1.0000000180025095e-35 3.5000000000000004 1.0000000180025095e-35 0.63980454124494035 0.14477049744084924 0.3694958203041992 98.500000000000014
decision_type=2 2 2 2 2 2 2 2 2 2 2 2 2 2 2 2 2 2 2 2 2 2 2 2 2 2 2 2 2 2
left_child=2 3 22 5 8 -2 -5 13 -3 23 11 12 -7 17 15 -4 26 -8 29 20 21 -10 -1 24 -6 -26 27 -17 -9 -18
right_child=1 4 14 6 9 10 7 28 19 -11 -12 -13 -14 -15 -16 16 18 -19 -20 -21 -22 -23 -24 -25 25 -27 -28 -29 -30 -31
leaf_value=-42.059839563202445 -5.992539823944889 21.778930507911433 13.412788573111573 40.536695883409038 -3.2513891195588642 27.920039199376777 -16.747261326448335 13.428320445755904 44.440788722557514 43.165664111146143 -3.1903140672901333 -25.104055161476136 -7.9930947808658379 21.81569706698259 34.855810770495189 -3.5259473712989569 -31.838931862027206 9.1096626556487319 -12.651879909685103 7.6724906984965004 72.036506283283231 86.063839131016891 -26.043698655234444 -15.270433927837173 -13.167470317051329 20.919009662212289 14.522630183263258 -18.686629293983568 -5.2080335939036955 1.7902028579711915
leaf_weight=798 335 182 73 53 90 992 824 279 551 109 149 40 85 72 29 223 558 105 236 30 96 31 234 57 29 266 44 323 112 25
leaf_count=798 335 182 73 53 90 992 824 279 551 109 149 40 85 72 29 223 558 105 236 30 96 31 234 57 29 266 44 323 112 25
internal_value=0 14.3879 -25.3867 5.76802 32.6085 14.6972 -4.12516 -5.82564 42.9936 15.8342 20.172 23.2884 25.0857 -11.2612 -16.4794 -17.4839 -19.0847 -13.8248 -25.2835 48.4471 50.2513 46.6578 -38.4283 9.09403 12.7012 17.5681 -10.4798 -12.4946 8.09003 -30.3969
internal_weight=0 4487 2543 3046 1441 1601 1445 1392 890 551 1266 1117 1077 1001 1511 1482 1409 929 819 708 678 582 1032 442 385 295 590 546 391 583
internal_count=7030 4487 2543 3046 1441 1601 1445 1392 890 551 1266 1117 1077 1001 1511 1482 1409 929 819 708 678 582 1032 442 385 295 590 546 391 583
is_linear=0
shrinkage=0.05


Tree=12
num_leaves=31
num_cat=0
split_feature=121 119 121 122 30 119 65 66 122 37 120 119 122 117 112 64 17 121 7 111 121 120 117 115 119 120 73 120 120 119
split_gain=9.34197e+08 2.22995e+08 1.82464e+08 1.13725e+08 6.62405e+07 5.86135e+07 4.67342e+07 4.09309e+07 4.06807e+07 3.92531e+07 3.87228e+07 3.73045e+07 3.41501e+07 2.61957e+07 3.12916e+07 2.61803e+07 2.77268e+07 2.46301e+07 2.41871e+07 2.1457e+07 2.00045e+07 1.81199e+07 1.74646e+07 1.7053e+07 1.5843e+07 1.22101e+07 1.18086e+07 1.05655e+07 9.45687e+06 1.02164e+07
threshold=1.0000000180025095e-35 1.5000000000000002 -0.79448792577437743 -0.25962745664284381 1.0000000180025095e-35 1.0000000180025095e-35 1.0000000180025095e-35 0.63098810903678693 -0.20159494031721245 1.0000000180025095e-35 3.5000000000000004 1.0000000180025095e-35 0.67940796933916869 11.500000000000002 0.49962696255560651 0.46833597407552274 1.0000000180025095e-35 -1.7420937742685327 1.0000000180025095e-35 1.0000000180025095e-35 1.4165923873786521 79.500000000000014 1.0000000180025095e-35 1.0000000180025095e-35 1.5000000000000002 3.5000000000000004 1.0000000180025095e-35 78.500000000000014 98.500000000000014 1.5000000000000002
decision_type=2 2 2 2 2 2 2 2 2 2 2 2 2 2 2 2 2 2 2 2 2 2 2 2 2 2 2 2 2 2
left_child=2 3 7 5 6 18 8 17 9 10 -3 -5 15 14 20 16 22 -1 -2 -15 -7 23 -4 -13 27 -10 -24 -19 29 -14
right_child=1 4 12 11 -6 13 -8 -9 25 -11 -12 21 28 19 -16 -17 -18 24 -20 -21 -22 -23 26 -25 -26 -27 -28 -29 -30 -31
leaf_value=-43.520456233576731 5.1796639235814412 -6.083114883332577 25.246247842663625 -10.446400299688866 41.007381509203434 48.659966386563354 -25.090904878061028 37.762759742736819 -22.303074573335195 -37.414137751881668 18.928391157373355 10.965078250708119 -14.177132989459569 22.547349661748108 9.5281829357147227 -32.247352265148628 -28.12706238397277 -21.968924656903493 36.363529586791991 45.216263351023528 81.441339290843302 33.768506960625196 -3.2683429534714095 51.838824392248085 -33.579886341022942 -3.3912490078917985 26.273640225274221 15.047170920599076 3.0296771886872085 -28.728801065958464
leaf_weight=475 180 206 61 145 109 532 158 20 105 41 622 465 225 243 48 82 101 235 95 183 51 137 1009 27 662 456 35 21 41 260
leaf_count=475 180 206 61 145 109 532 158 20 105 41 622 465 225 243 48 82 101 235 95 183 51 137 1009 27 662 456 35 21 41 260
internal_value=0 16.7899 -19.7868 27.6583 3.30204 36.5153 0.713956 -33.258 3.56512 10.341 12.7057 12.416 -9.2935 41.8652 48.3327 -4.90938 -3.05057 -34.2777 15.9523 32.2854 51.5276 17.6863 -0.758515 13.2081 -29.4952 -6.9309 -2.27795 -18.9324 -20.0288 -21.978
internal_weight=0 3803 3227 2106 1697 1332 1588 1413 1430 869 828 774 1814 1057 631 1288 1206 1393 275 426 583 629 1105 492 918 561 1044 256 526 485
internal_count=7030 3803 3227 2106 1697 1332 1588 1413 1430 869 828 774 1814 1057 631 1288 1206 1393 275 426 583 629 1105 492 918 561 1044 256 526 485
is_linear=0
shrinkage=0.05


Tree=13
num_leaves=31
num_cat=0
split_feature=121 119 121 122 30 107 65 121 66 15 119 122 122 37 121 64 17 70 117 115 6 120 115 115 73 120 119 119 35 120
split_gain=8.43113e+08 2.01253e+08 1.64674e+08 1.02894e+08 5.9782e+07 5.18663e+07 4.29222e+07 3.77825e+07 3.69402e+07 3.57271e+07 3.11504e+07 3.10547e+07 3.09819e+07 3.0927e+07 2.25316e+07 2.20172e+07 2.27687e+07 1.51925e+07 1.49502e+07 1.41333e+07 1.68773e+07 1.35602e+07 1.35373e+07 1.1806e+07 1.09291e+07 1.04148e+07 1.07933e+07 1.02318e+07 9.08206e+06 8.89202e+06
threshold=1.0000000180025095e-35 1.5000000000000002 -0.79448792577437743 -0.20159494031721245 1.0000000180025095e-35 0.33408231184569859 0.54228817451659939 0.7848551550492151 0.63098810903678693 1.0000000180025095e-35 1.0000000180025095e-35 0.046668422828807322 0.54163455660096271 1.0000000180025095e-35 -1.4262251581038143 0.46833597407552274 1.0000000180025095e-35 0.58336573174016204 1.0000000180025095e-35 1.0000000180025095e-35 0.50807669273649847 79.500000000000014 1.0000000180025095e-35 1.0000000180025095e-35 1.0000000180025095e-35 98.500000000000014 1.5000000000000002 1.5000000000000002 0.46538210008341901 20.500000000000004
decision_type=2 2 2 2 2 2 2 2 2 2 2 2 2 2 2 2 2 2 2 2 2 2 2 2 2 2 2 2 2 2
left_child=2 3 8 5 6 7 9 17 14 11 -5 13 15 -3 -1 16 18 23 -4 20 -9 22 29 -2 -20 26 -14 -16 -13 -12
right_child=1 4 12 10 -6 -7 -8 19 -10 -11 21 28 25 -15 27 -17 -18 -19 24 -21 -22 -23 -24 -25 -26 -27 -28 -29 -30 -31
leaf_value=-39.056614028953042 24.139248891006289 8.1946568089889809 25.853293389540454 -10.196659658986626 38.957013004197989 11.803062503026167 -29.453661360307173 39.947303037633525 35.874621315002443 61.014424778864935 27.591319242070934 -15.460201028585434 -12.559233524416811 -35.599223400297625 -17.491734624654054 -30.193955220674212 -26.361879336178959 69.63542280651275 -2.6441409016360455 81.575220856843174 58.606676240614902 30.748591585857113 47.778202148437501 56.038187312310747 26.627251214692087 4.4102709174156187 -26.376915568731302 -30.403710697025247 0.12319291715752589 6.9677607970123425
leaf_weight=682 451 1004 52 141 109 218 110 481 20 26 61 260 268 42 224 76 91 21 947 27 162 123 25 31 33 48 299 487 146 365
leaf_count=682 451 1004 52 141 109 218 110 481 20 26 61 260 268 42 224 76 91 21 947 27 162 123 25 31 33 48 299 487 146 365
internal_value=0 15.9504 -18.7974 26.2754 3.13694 34.199 0.678258 38.3613 -31.5951 2.92082 10.8603 1.88058 -8.82882 6.4362 -32.5638 -4.14896 -2.38634 28.0046 -0.27222 46.1365 44.6484 16.0328 12.0194 26.1908 -1.65847 -17.9526 -19.8458 -26.3358 -9.85632 9.9209
internal_weight=0 3803 3227 2106 1697 1391 1588 1173 1413 1478 715 1452 1814 1046 1393 1199 1123 503 1032 670 643 574 451 482 980 615 567 711 406 426
internal_count=7030 3803 3227 2106 1697 1391 1588 1173 1413 1478 715 1452 1814 1046 1393 1199 1123 503 1032 670 643 574 451 482 980 615 567 711 406 426
is_linear=0
shrinkage=0.05


Tree=14
num_leaves=31
num_cat=0
split_feature=121 119 121 122 30 119 65 122 66 37 120 119 122 121 64 17 5 115 7 121 120 117 115 119 111 38 20 120 6 122
split_gain=7.60909e+08 1.81631e+08 1.48618e+08 9.29448e+07 5.39533e+07 4.91235e+07 3.90225e+07 3.41708e+07 3.33385e+07 3.21565e+07 3.47104e+07 3.03903e+07 2.81618e+07 2.34516e+07 2.27239e+07 2.57604e+07 2.22892e+07 2.57808e+07 2.09447e+07 2.06154e+07 1.49071e+07 1.44123e+07 1.38829e+07 1.30424e+07 1.26494e+07 1.12092e+07 1.45309e+07 9.4861e+06 9.09657e+06 8.76372e+06
threshold=1.0000000180025095e-35 1.5000000000000002 -0.79448792577437743 -0.25962745664284381 1.0000000180025095e-35 1.0000000180025095e-35 1.0000000180025095e-35 -0.20159494031721245 0.63098810903678693 1.0000000180025095e-35 3.5000000000000004 1.0000000180025095e-35 0.907781849886938 1.4165923873786521 0.46833597407552274 1.0000000180025095e-35 1.0000000180025095e-35 1.0000000180025095e-35 1.0000000180025095e-35 -1.7420937742685327 79.500000000000014 1.0000000180025095e-35 1.0000000180025095e-35 1.5000000000000002 1.0000000180025095e-35 1.0000000180025095e-35 1.0000000180025095e-35 78.500000000000014 0.44571062945470891 0.17000904543484138
decision_type=2 2 2 2 2 2 2 2 2 2 2 2 2 2 2 2 2 2 2 2 2 2 2 2 2 2 2 2 2 2
left_child=2 3 8 5 6 18 7 9 19 10 -3 -5 14 16 15 21 17 -7 -2 -1 22 -4 29 27 -23 26 -9 -21 -15 -13
right_child=1 4 12 11 -6 13 -8 25 -10 -11 -12 20 -14 28 -16 -17 -18 -19 -20 23 -22 24 -24 -25 -26 -27 -28 -29 -30 -31
leaf_value=-39.39160191184596 4.1191379970974396 -6.1886920199593876 21.480661534901824 -9.4530992918384484 37.009161627620735 29.359668932593134 -22.935549818111372 0.60556413876726423 34.080890045166022 -33.76346956578697 17.491565512369874 17.516544421168344 -20.044542558864684 47.807902262503646 -29.367535705566407 -25.905717889193831 51.70300150303482 64.565639482225691 33.137660474275286 -19.853655714735073 30.525905602169736 -3.7498392312865727 46.732798201949514 -30.266336969500045 20.620294293335505 -26.420717768515313 -20.113281251986823 15.22074406941732 78.268416861600656 3.704886149436005
leaf_weight=475 180 206 66 145 109 728 158 391 20 41 622 207 403 57 90 116 173 56 95 235 137 1083 27 662 56 62 108 21 43 258
leaf_count=475 180 206 66 145 109 728 158 391 20 41 622 207 403 57 90 116 173 56 95 235 137 1083 27 662 56 62 108 21 43 258
internal_value=0 15.1529 -17.8576 24.9616 2.98009 32.9687 0.644346 3.24968 -30.0153 9.45982 11.6001 11.1821 -8.38738 37.8663 -5.05794 -3.40173 35.4589 31.8744 14.1437 -30.9356 15.939 -1.23537 11.8772 -26.5602 -2.55166 -6.36995 -3.87867 -16.9765 60.9059 9.8533
internal_weight=0 3803 3227 2106 1697 1332 1588 1430 1413 869 828 774 1814 1057 1411 1321 957 784 275 1393 629 1205 492 918 1139 561 499 256 100 465
internal_count=7030 3803 3227 2106 1697 1332 1588 1430 1413 869 828 774 1814 1057 1411 1321 957 784 275 1393 629 1205 492 918 1139 561 499 256 100 465
is_linear=0
shrinkage=0.05


Tree=15
num_leaves=31
num_cat=0
split_feature=121 121 121 119 119 119 117 35 107 9 12 108 113 30 122 122 5 71 118 117 118 117 64 115 70 17 1 112 81 116
split_gain=6.87692e+08 1.97937e+08 7.7712e+07 7.20432e+07 6.6957e+07 5.08824e+07 3.5125e+07 3.14864e+07 2.86803e+07 2.84171e+07 3.15239e+07 3.27311e+07 2.70158e+07 2.5867e+07 2.38944e+07 1.97886e+07 1.87604e+07 1.44623e+07 1.34555e+07 1.39022e+07 1.34279e+07 1.30549e+07 1.33367e+07 1.13389e+07 1.243e+07 1.08275e+07 1.06575e+07 1.15254e+07 9.67182e+06 1.03967e+07
threshold=-0.16275069344494045 0.7848551550492151 -1.1103565419390957 1.5000000000000002 1.5000000000000002 1.0000000180025095e-35 1.0000000180025095e-35 0.46538210008341901 0.33408231184569859 0.55355533444323668 0.48704823602295316 0.48591731649828723 1.0000000180025095e-35 1.0000000180025095e-35 0.25026655178503304 -1.0786264110781636 0.33414384581380735 0.51184273092546895 3.5000000000000004 5.5000000000000009 2.5000000000000004 12.500000000000002 0.46833597407552274 1.0000000180025095e-35 1.0000000180025095e-35 1.0000000180025095e-35 0.5824137053764068 0.47487926158146088 1.0000000180025095e-35 0.4446627070400983
decision_type=2 2 2 2 2 2 2 2 2 2 2 2 2 2 2 2 2 2 2 2 2 2 2 2 2 2 2 2 2 2
left_child=2 3 20 5 8 -2 -5 12 15 10 11 -7 16 18 17 28 -8 25 19 -6 -1 22 26 24 -17 -4 27 -16 29 -3
right_child=1 4 14 6 13 9 7 -9 -10 -11 -12 -13 -14 -15 21 23 -18 -19 -20 -21 -22 -23 -24 -25 -26 -27 -28 -29 -30 -31
leaf_value=-34.43749809384645 -5.4729907586681312 54.019431978691003 -2.2393413364453751 36.406687851671904 -6.8086334985036121 23.327189059113906 -14.588260983332123 6.966807182960193 15.424248936047427 -25.031903820037844 -3.7620404019451783 -9.001848260094139 19.740443144904244 35.15870396325348 -1.4698904297164843 25.585764228567786 7.8526856395176488 -38.790352098869562 31.597800118124713 12.477555155037811 -20.816615934861012 -25.16905605924239 -36.0720710322542 67.008769683837883 66.322154693603508 -21.128898813507774 -31.321394932523688 -27.946792867232343 28.378113189538325 30.987402776944435
leaf_weight=798 335 289 550 53 156 992 824 391 148 40 149 85 72 109 255 294 105 33 53 233 234 436 53 20 20 88 47 49 60 59
leaf_count=798 335 289 550 53 156 992 824 391 148 40 149 85 72 109 255 294 105 33 53 233 234 436 53 20 20 88 47 49 60 59
internal_value=0 11.7729 -20.7728 4.54985 27.0411 11.8552 -3.54416 -5.06527 35.5216 16.4404 17.7935 20.7757 -9.76512 13.3432 -13.5492 39.5302 -12.0519 -6.51425 7.96336 4.74325 -31.349 -19.1689 -12.6934 30.5055 28.1804 -4.8448 -9.16331 -5.73755 46.918 50.1146
internal_weight=0 4487 2543 3046 1441 1601 1445 1392 890 1266 1226 1077 1001 551 1511 742 929 671 442 389 1032 840 404 334 314 638 351 304 408 348
internal_count=7030 4487 2543 3046 1441 1601 1445 1392 890 1266 1226 1077 1001 551 1511 742 929 671 442 389 1032 840 404 334 314 638 351 304 408 348
is_linear=0
shrinkage=0.05


Tree=16
num_leaves=31
num_cat=0
split_feature=121 119 121 122 30 119 65 15 66 38 37 119 122 9 122 70 7 121 64 117 112 111 120 115 108 119 62 115 117 120
split_gain=6.25664e+08 1.47672e+08 1.20145e+08 7.93131e+07 4.37314e+07 4.0451e+07 3.39498e+07 3.04671e+07 2.91263e+07 2.63817e+07 2.59591e+07 2.50008e+07 2.36202e+07 2.08387e+07 2.19788e+07 1.77299e+07 1.76453e+07 1.74394e+07 1.68541e+07 1.69372e+07 1.61344e+07 1.60426e+07 1.27766e+07 1.2096e+07 1.09068e+07 1.06166e+07 8.93248e+06 8.52278e+06 8.39496e+06 8.23128e+06
threshold=1.0000000180025095e-35 1.5000000000000002 -0.79448792577437743 -0.25962745664284381 1.0000000180025095e-35 1.0000000180025095e-35 0.54228817451659939 1.0000000180025095e-35 0.63098810903678693 1.0000000180025095e-35 1.0000000180025095e-35 1.0000000180025095e-35 0.54163455660096271 0.51550199003182617 -1.1973175442456456 0.58336573174016204 1.0000000180025095e-35 -1.7420937742685327 0.46833597407552274 12.500000000000002 0.45445009889730031 1.0000000180025095e-35 79.500000000000014 1.0000000180025095e-35 0.48591731649828723 1.5000000000000002 0.34870771858192745 0.63980454124494035 1.0000000180025095e-35 78.500000000000014
decision_type=2 2 2 2 2 2 2 2 2 2 2 2 2 2 2 2 2 2 2 2 2 2 2 2 2 2 2 2 2 2
left_child=2 3 8 5 6 16 7 9 17 10 -3 -5 18 14 24 -16 -2 -1 19 20 26 -21 23 -13 -7 29 -4 28 -14 -19
right_child=1 4 12 11 -6 13 -8 -9 -10 -11 -12 22 27 -15 15 -17 -18 25 -20 21 -22 -23 -24 -25 -26 -27 -28 -29 -30 -31
leaf_value=-35.76179942764734 3.6976134305530124 5.0836787171336404 12.115737471155983 -8.8604355844958089 33.400769063967083 50.470219760081349 -26.136613263216887 56.302908383882965 32.786135940551759 -20.458468431767411 -32.750515698372048 8.5208208019118157 7.9218675367534166 -1.9291636015239515 29.241024143077709 69.845091683523989 30.332585047671671 -17.993612058987008 -26.379421726026035 -10.54266148133242 -20.360867495455985 18.815991313784732 27.674686480960709 42.945109529848452 23.638290615515277 -27.303876989917814 -2.3613028736234463 10.347429752349854 -18.418365580285435 14.67872085230691
leaf_weight=475 180 1282 323 145 109 272 110 26 20 123 47 465 32 38 675 28 95 235 76 531 59 51 137 27 44 662 159 30 553 21
leaf_count=475 180 1282 323 145 109 272 110 26 20 123 47 465 32 38 675 28 95 235 76 531 59 51 137 27 44 662 159 30 553 21
internal_value=0 13.7404 -16.193 22.5848 2.76437 29.9814 0.661498 2.65594 -27.1242 1.69532 3.74567 9.85577 -7.67815 34.4258 35.7815 30.8583 12.8988 -27.9844 -3.59193 -2.04977 4.31912 -7.97 14.1703 10.41 46.7341 -23.9601 7.34012 -15.6446 -16.9775 -15.3135
internal_weight=0 3803 3227 2106 1697 1332 1588 1478 1413 1452 1329 774 1814 1057 1019 703 275 1393 1199 1123 541 582 629 492 316 918 482 615 585 256
internal_count=7030 3803 3227 2106 1697 1332 1588 1478 1413 1452 1329 774 1814 1057 1019 703 275 1393 1199 1123 541 582 629 492 316 918 482 615 585 256
is_linear=0
shrinkage=0.05


Tree=17
num_leaves=31
num_cat=0
split_feature=121 119 121 122 122 107 55 113 119 66 121 122 64 17 119 119 55 121 120 70 6 115 117 111 112 108 115 117 2 122
split_gain=5.64661e+08 1.33274e+08 1.08431e+08 7.18625e+07 4.22502e+07 3.85471e+07 3.34676e+07 3.36581e+07 2.80311e+07 2.62865e+07 2.57109e+07 2.18559e+07 2.04309e+07 2.2516e+07 1.91171e+07 1.83554e+07 1.72074e+07 1.58752e+07 1.55122e+07 1.29524e+07 1.22931e+07 1.43435e+07 1.22901e+07 1.05503e+07 9.75446e+06 9.24927e+06 9.08187e+06 8.76363e+06 8.95747e+06 8.57289e+06
threshold=1.0000000180025095e-35 1.5000000000000002 -0.79448792577437743 -0.1378259011426268 -0.47295507275752097 0.39008980779918101 0.36033458805590679 1.0000000180025095e-35 3.5000000000000004 0.63098810903678693 0.7848551550492151 1.222806284762908 0.46833597407552274 1.0000000180025095e-35 1.0000000180025095e-35 2.5000000000000004 0.41071722352401463 -1.4262251581038143 98.500000000000014 0.58336573174016204 0.50807669273649847 1.0000000180025095e-35 1.0000000180025095e-35 1.0000000180025095e-35 0.42262916353093716 0.48591731649828723 1.0000000180025095e-35 1.5000000000000002 1.0000000180025095e-35 0.97988122430559621
decision_type=2 2 2 2 2 2 2 2 2 2 2 2 2 2 2 2 2 2 2 2 2 2 2 2 2 2 2 2 2 2
left_child=2 3 9 5 6 10 7 8 15 17 19 12 13 22 -5 -3 18 -1 27 26 21 -12 -4 -24 25 29 -2 -6 -29 -16
right_child=1 4 11 14 16 -7 -8 -9 -10 -11 20 -13 -14 -15 24 -17 -18 -19 -20 -21 -22 -23 23 -25 -26 -27 -28 28 -30 -31
leaf_value=-32.035188596898863 19.423813873506976 4.7583688051194484 18.379212301724579 -8.9673989830160501 4.8229026714960739 6.7704078743697487 26.504162646797546 66.719247690836582 30.160622386932374 31.146829147338867 31.781882628988711 -20.622195303304114 -26.439743335430439 -23.603666557852677 20.40980036853324 -14.253448913198836 4.6217116322226195 -21.357462307750009 25.149808849607197 60.294834795865142 49.357114302081833 68.52462921142579 -3.7804469349348473 17.377889567036785 -4.1790808674616695 -13.474074059945565 47.345342445373539 -18.724264288534883 0.56843572722540958 3.5633788242168034
leaf_weight=682 481 391 73 133 60 189 229 21 80 20 517 263 104 127 341 188 262 711 28 22 162 28 1185 62 78 27 31 366 72 97
leaf_count=682 481 391 73 133 60 189 229 21 80 20 517 263 104 127 341 188 262 711 28 22 162 28 1185 62 78 27 31 366 72 97
internal_value=0 13.0534 -15.3833 21.4555 2.62615 27.8059 9.97171 4.40416 2.4184 -25.768 31.0095 -7.29424 -5.03425 -3.49577 8.02213 -1.41473 -5.84733 -26.5852 -11.0619 22.7286 37.2642 33.6696 -1.56115 -2.72847 12.1835 14.9281 21.1144 -13.098 -15.5529 16.679
internal_weight=0 3803 3227 2106 1697 1430 909 680 659 1413 1241 1814 1551 1447 676 579 788 1393 526 534 707 545 1320 1247 543 465 512 498 438 438
internal_count=7030 3803 3227 2106 1697 1430 909 680 659 1413 1241 1814 1551 1447 676 579 788 1393 526 534 707 545 1320 1247 543 465 512 498 438 438
is_linear=0
shrinkage=0.05


Tree=18
num_leaves=31
num_cat=0
split_feature=121 121 121 119 119 6 117 55 69 120 115 5 66 122 122 111 121 64 117 112 111 113 119 122 56 120 7 121 62 121
split_gain=5.09607e+08 1.21833e+08 9.78587e+07 7.79058e+07 4.60708e+07 3.53964e+07 2.82751e+07 2.91862e+07 3.19331e+07 2.75366e+07 2.73417e+07 2.44789e+07 2.37235e+07 2.027e+07 2.00485e+07 1.63397e+07 1.48599e+07 1.38602e+07 1.32753e+07 1.45463e+07 1.28505e+07 1.24711e+07 1.09276e+07 1.06242e+07 1.0307e+07 1.07029e+07 9.91894e+06 9.23104e+06 9.08915e+06 7.69029e+06
threshold=1.0000000180025095e-35 1.1007237712139337 -0.79448792577437743 1.5000000000000002 1.0000000180025095e-35 0.41519605742087412 1.0000000180025095e-35 0.36033458805590679 1.0000000180025095e-35 98.500000000000014 1.0000000180025095e-35 1.0000000180025095e-35 0.63098810903678693 1.0000000180025095e-35 0.48888652942887073 1.0000000180025095e-35 -2.0579623904332509 0.46833597407552274 12.500000000000002 0.45445009889730031 1.0000000180025095e-35 0.33847343718655987 1.5000000000000002 -0.21794349230138052 1.0000000180025095e-35 1.0000000180025095e-35 1.0000000180025095e-35 0.46898653888449654 0.34870771858192745 1.4165923873786521
decision_type=2 2 2 2 2 2 2 2 2 2 2 2 2 2 2 2 2 2 2 2 2 2 2 2 2 2 2 2 2 2
left_child=2 3 12 4 26 15 -5 8 9 -8 11 13 16 -6 17 21 -1 18 19 28 -20 24 -18 -9 25 -3 -2 -13 -4 -7
right_child=1 5 14 6 10 29 7 23 -10 -11 -12 27 -14 -15 -16 -17 22 -19 20 -21 -22 -23 -24 -25 -26 -27 -28 -29 -30 -31
leaf_value=-34.580025048212171 -7.5466085341124414 1.3341138863172688 12.113753431996992 51.789661888122559 19.215833066260682 41.612345912788491 -10.029682044461206 18.099313015525876 43.471788301775533 29.222026652478156 48.53636611574575 20.468471307321028 29.589487075805664 3.758230191027677 -13.90505109277853 49.344950062144889 -13.681918920903403 -23.904166762893269 -9.2164779473815042 -19.153801390276119 17.338189161300658 56.889103765073031 -25.336752430273869 1.6706784853794305 -8.2297255635261539 23.629099507571311 14.233882751184352 39.705353317533934 -2.8455973789391931 63.942969415702066
leaf_weight=327 226 61 310 25 614 158 906 191 31 47 76 110 20 324 657 55 269 74 513 59 50 23 797 203 32 458 68 144 151 51
leaf_count=327 226 61 310 25 614 158 906 191 31 47 76 110 20 324 657 55 269 74 513 59 50 23 797 203 32 458 68 144 151 51
internal_value=0 12.4007 -14.6142 7.64299 15.3242 29.2344 -0.908748 -1.86481 -6.46934 -8.09387 19.459 17.6051 -24.4796 13.8765 -6.92953 23.3109 -25.2559 -2.96849 -1.53799 4.22212 -6.85816 20.8164 -22.3957 9.63481 19.3106 21.0087 -2.50894 31.3744 7.21384 47.0614
internal_weight=0 3803 3227 2965 1562 838 1403 1378 984 953 1268 1192 1413 938 1814 629 1393 1157 1083 520 563 574 1066 394 551 519 294 254 461 209
internal_count=7030 3803 3227 2965 1562 838 1403 1378 984 953 1268 1192 1413 938 1814 629 1393 1157 1083 520 563 574 1066 394 551 519 294 254 461 209
is_linear=0
shrinkage=0.05


Tree=19
num_leaves=31
num_cat=0
split_feature=121 121 121 119 119 6 117 55 69 122 120 66 122 115 120 111 121 64 113 117 64 111 122 119 5 119 120 120 1 112
split_gain=4.5992e+08 1.09954e+08 8.83174e+07 7.031e+07 4.15789e+07 3.19452e+07 2.55182e+07 2.63406e+07 2.88196e+07 2.51388e+07 2.48518e+07 2.14105e+07 1.87279e+07 1.71132e+07 2.09201e+07 1.47466e+07 1.34111e+07 1.17967e+07 1.12552e+07 1.06695e+07 1.2906e+07 1.00073e+07 9.90291e+06 9.86218e+06 9.83046e+06 1.27252e+07 9.81484e+06 1.13001e+07 9.64736e+06 1.01066e+07
threshold=1.0000000180025095e-35 1.1007237712139337 -0.79448792577437743 1.5000000000000002 1.0000000180025095e-35 0.41519605742087412 1.0000000180025095e-35 0.36033458805590679 1.0000000180025095e-35 0.25026655178503304 98.500000000000014 0.63098810903678693 0.14477049744084924 1.0000000180025095e-35 79.500000000000014 1.0000000180025095e-35 -2.0579623904332509 0.46833597407552274 0.33847343718655987 12.500000000000002 0.46833597407552274 1.0000000180025095e-35 0.47138636779209836 1.5000000000000002 1.0000000180025095e-35 2.5000000000000004 98.500000000000014 93.500000000000014 0.5824137053764068 0.47487926158146088
decision_type=2 2 2 2 2 2 2 2 2 2 2 2 2 2 2 2 2 2 2 2 2 2 2 2 2 2 2 2 2 2
left_child=2 3 11 4 -2 15 -5 8 10 13 -8 16 17 14 -6 18 -1 26 24 20 28 -21 -9 -18 25 -3 27 -4 29 -14
right_child=1 5 12 6 9 -7 7 22 -10 -11 -12 -13 19 -15 -16 -17 23 -19 -20 21 -22 -23 -24 -25 -26 -27 -28 -29 -30 -31
leaf_value=-32.851024183439556 -2.3834966600346728 18.393094645153013 0.78611356726626758 49.20017893600464 17.4697458471889 44.708372944736027 -9.5281980355679341 13.466154758632184 41.29819838000882 6.317749292745531 27.760924637444475 28.110012817382813 2.5660877173824339 47.528251983225346 38.720143563207927 46.877702664462007 -12.997823262037398 -22.376766287895943 54.044649406101399 -18.733709419393971 -27.713923975626628 10.221858259930741 -5.4155593883991244 -24.069914620239732 38.006166357743119 -11.722449804607191 19.711424190203349 -19.194011751005924 -29.636223922237278 -22.254258338441243
leaf_weight=327 294 456 679 25 749 209 906 304 31 318 47 20 322 64 137 55 269 62 23 442 60 32 90 797 57 38 60 79 31 47
leaf_count=327 294 456 679 25 749 209 906 304 31 318 47 20 322 64 137 55 269 62 23 442 60 32 90 797 57 38 60 79 31 47
internal_value=0 11.7807 -13.8834 7.26084 14.558 27.7727 -0.863311 -1.77157 -6.14587 18.4861 -7.68918 -23.2556 -6.58305 22.5593 20.7556 22.1454 -23.9931 -1.34912 19.7756 -11.5144 -6.08963 -16.7789 9.15307 -21.2759 18.3451 16.0765 0.244657 -1.29625 -2.84598 -0.595311
internal_weight=0 3803 3227 2965 1562 838 1403 1378 984 1268 953 1413 1814 950 886 629 1393 880 574 934 460 474 394 1066 551 494 818 758 400 369
internal_count=7030 3803 3227 2965 1562 838 1403 1378 984 1268 953 1413 1814 950 886 629 1393 880 574 934 460 474 394 1066 551 494 818 758 400 369
is_linear=0
shrinkage=0.05


Tree=20
num_leaves=31
num_cat=0
split_feature=121 121 121 119 119 119 117 66 9 12 108 35 107 120 121 30 5 0 115 107 64 122 118 117 120 122 2 122 91 115
split_gain=4.15503e+08 1.2659e+08 4.76856e+07 4.45983e+07 3.87882e+07 3.26397e+07 2.50924e+07 2.39485e+07 2.27557e+07 2.26687e+07 2.51899e+07 2.08645e+07 1.91434e+07 1.90062e+07 1.88565e+07 1.57717e+07 1.42918e+07 1.49972e+07 1.80144e+07 1.33304e+07 1.23748e+07 1.08858e+07 1.07934e+07 9.74892e+06 7.95049e+06 7.82814e+06 7.5671e+06 7.50711e+06 7.25197e+06 6.89408e+06
threshold=-0.16275069344494045 0.7848551550492151 -1.4262251581038143 1.5000000000000002 1.5000000000000002 1.0000000180025095e-35 1.0000000180025095e-35 1.0000000180025095e-35 0.55355533444323668 0.48704823602295316 0.48591731649828723 0.6583928835439592 0.33408231184569859 98.500000000000014 -0.47861930960965893 1.0000000180025095e-35 1.0000000180025095e-35 0.43156500398172043 1.0000000180025095e-35 0.46440532464009304 0.46833597407552274 1.222806284762908 3.5000000000000004 5.5000000000000009 70.500000000000014 -1.1439129919444988 1.0000000180025095e-35 -0.24935983413270804 1.0000000180025095e-35 0.63980454124494035
decision_type=2 2 2 2 2 2 2 2 2 2 2 2 2 2 2 2 2 2 2 2 2 2 2 2 2 2 2 2 2 2
left_child=2 3 -1 5 12 24 -5 14 9 10 -7 13 16 19 20 22 17 18 -3 -8 21 28 23 26 -2 -25 -6 -15 -4 -16
right_child=1 4 7 6 15 8 11 -9 -10 -11 -12 -13 -14 27 29 -17 -18 -19 -20 -21 -22 -23 -24 25 -26 -27 -28 -29 -30 -31
leaf_value=-27.445628288654422 3.7469040321198523 20.218494341957832 -9.3031946823677156 30.773058801327114 -13.609631286217615 18.772972979138213 -11.313605894527415 29.580322490018958 -24.316985062360764 -4.2732311309584032 -9.5883163766299973 7.7851163405702826 11.396631635846319 29.014516732859057 -6.8600887246027185 27.97018980673694 46.217782055315126 40.380015090779764 59.751825148059481 8.6559154857759903 -32.905710829221285 -22.66357609337231 27.902548178186962 20.272750920224414 -11.73384807356026 1.8819698884373619 9.7506811178647563 1.6419815564155578 -21.379479398419782 18.108502769470217
leaf_weight=683 151 409 628 53 104 992 912 34 40 149 85 285 148 43 592 109 129 173 31 92 104 318 53 107 184 126 52 60 155 29
leaf_count=683 151 409 628 53 104 992 912 34 40 149 85 285 148 43 592 109 129 173 31 92 104 318 53 107 184 126 52 60 155 29
internal_value=0 9.15112 -16.1467 3.37471 21.3614 9.12251 -2.99363 -11.9977 12.7949 14.0058 16.5346 -4.27928 27.816 -7.38529 -12.7719 10.9356 31.091 27.9077 23.0038 -9.48373 -16.4194 -14.8622 6.7348 3.85076 -4.75596 10.3275 -5.82286 13.0694 -11.6938 -5.69408
internal_weight=0 4487 2543 3046 1441 1601 1445 1860 1266 1226 1077 1392 890 1107 1826 551 742 613 440 1004 1205 1101 442 389 335 233 156 103 783 621
internal_count=7030 4487 2543 3046 1441 1601 1445 1860 1266 1226 1077 1392 890 1107 1826 551 742 613 440 1004 1205 1101 442 389 335 233 156 103 783 621
is_linear=0
shrinkage=0.05


Tree=21
num_leaves=31
num_cat=0
split_feature=121 121 121 119 119 6 66 65 122 38 121 20 37 115 120 64 17 111 64 113 122 70 117 7 5 119 111 121 91 122
split_gain=3.77553e+08 9.15435e+07 7.16555e+07 5.65326e+07 3.41782e+07 2.72346e+07 2.63108e+07 2.25259e+07 2.18569e+07 2.05066e+07 1.97039e+07 1.93984e+07 2.25268e+07 1.462e+07 1.85292e+07 1.29076e+07 1.35057e+07 1.20248e+07 1.11682e+07 9.86422e+06 9.82441e+06 8.92356e+06 8.61964e+06 8.44102e+06 8.22496e+06 1.03185e+07 7.94466e+06 7.06073e+06 6.54491e+06 4.65647e+06
threshold=1.0000000180025095e-35 1.1007237712139337 -0.47861930960965893 1.5000000000000002 1.0000000180025095e-35 0.41519605742087412 1.0000000180025095e-35 0.54228817451659939 0.25026655178503304 1.0000000180025095e-35 -1.4262251581038143 1.0000000180025095e-35 1.0000000180025095e-35 1.0000000180025095e-35 79.500000000000014 0.46833597407552274 1.0000000180025095e-35 1.0000000180025095e-35 0.46833597407552274 0.33847343718655987 1.222806284762908 1.0000000180025095e-35 1.0000000180025095e-35 1.0000000180025095e-35 1.0000000180025095e-35 2.5000000000000004 1.0000000180025095e-35 1.4165923873786521 1.0000000180025095e-35 -0.14994470926255651
decision_type=2 2 2 2 2 2 2 2 2 2 2 2 2 2 2 2 2 2 2 2 2 2 2 2 2 2 2 2 2 2
left_child=2 3 6 4 23 17 10 9 13 11 -1 12 -5 14 -6 16 21 19 20 24 28 22 -4 -2 25 -3 -24 -7 -12 -13
right_child=1 5 15 7 8 27 -8 -9 -10 -11 18 29 -14 -15 -16 -17 -18 -19 -20 -21 -22 -23 26 -25 -26 -27 -28 -29 -30 -31
leaf_value=-26.233683698984887 -6.9142494008736284 16.601626232475564 17.596559806455645 8.4125967963885149 15.692820862958207 35.681596654210288 31.201074424156776 -22.456437329378996 5.3080436650878875 -19.850965176341688 -8.8380349787936847 -3.5483636427832685 -28.272538792003289 43.530867400020362 35.692077395167665 -21.045220461670237 -21.526211509250459 42.403368386355311 -31.260425626314607 50.011518727178156 -21.530397220911848 32.35509574890137 -3.4953097619236964 13.178179500032876 34.574700780500443 -10.516996775175397 14.296410815039678 57.078663351021568 -20.310505582747922 -16.825723992042171
leaf_weight=682 226 456 57 855 749 158 26 110 318 107 628 184 44 64 137 98 84 55 104 23 318 20 988 68 57 38 67 51 155 103
leaf_count=682 226 456 57 855 749 158 26 110 318 107 628 184 44 64 137 98 84 55 104 23 318 20 988 68 57 38 67 51 155 103
internal_value=0 10.6738 -12.579 6.54966 13.0929 25.2656 -18.754 -0.735161 16.6543 1.11274 -19.4423 3.00407 6.61711 20.4523 18.7853 -3.58907 -2.18224 20.0698 -15.5985 17.9298 -14.1191 -0.74682 -1.34218 -2.26702 16.5907 14.5156 -2.36541 40.9029 -11.1091 -8.31341
internal_weight=0 3803 3227 2965 1562 838 1913 1403 1268 1293 1887 1186 899 950 886 1314 1216 629 1205 574 1101 1132 1112 294 551 494 1055 209 783 287
internal_count=7030 3803 3227 2965 1562 838 1913 1403 1268 1293 1887 1186 899 950 886 1314 1216 629 1205 574 1101 1132 1112 294 551 494 1055 209 783 287
is_linear=0
shrinkage=0.05


Tree=22
num_leaves=31
num_cat=0
split_feature=121 121 121 119 119 6 117 69 55 120 122 122 66 70 115 111 121 37 117 119 113 122 120 119 7 120 56 73 120 120
split_gain=3.40742e+08 8.2618e+07 6.47807e+07 5.10207e+07 3.08458e+07 2.45792e+07 2.11412e+07 2.08374e+07 2.43875e+07 2.02637e+07 2.01448e+07 1.56966e+07 1.55571e+07 1.33449e+07 1.23787e+07 1.08524e+07 1.07189e+07 1.03612e+07 9.04394e+06 1.121e+07 8.90246e+06 8.83917e+06 8.26689e+06 8.05197e+06 7.61802e+06 7.58972e+06 7.79448e+06 7.43212e+06 7.39768e+06 7.03957e+06
threshold=1.0000000180025095e-35 1.1007237712139337 -0.79448792577437743 1.5000000000000002 1.0000000180025095e-35 0.41519605742087412 1.0000000180025095e-35 1.0000000180025095e-35 0.36033458805590679 98.500000000000014 1.0000000180025095e-35 0.14477049744084924 0.63098810903678693 0.58336573174016204 1.0000000180025095e-35 1.0000000180025095e-35 -2.0579623904332509 0.60499283235297807 1.0000000180025095e-35 1.5000000000000002 0.33847343718655987 -0.21794349230138052 98.500000000000014 1.5000000000000002 1.0000000180025095e-35 1.0000000180025095e-35 1.0000000180025095e-35 1.0000000180025095e-35 78.500000000000014 79.500000000000014
decision_type=2 2 2 2 2 2 2 2 2 2 2 2 2 2 2 2 2 2 2 2 2 2 2 2 2 2 2 2 2 2
left_child=2 3 12 4 24 15 -5 8 9 -8 13 17 16 14 -6 20 -1 22 -13 -20 25 -10 27 28 -2 -3 -27 -4 -18 -12
right_child=1 5 11 6 10 -7 7 -9 21 -11 29 18 -14 -15 -16 -17 23 -19 19 -21 -22 -23 -24 -25 -26 26 -28 -29 -30 -31
leaf_value=-28.524507437423097 -6.5685369083839182 -0.87071304985734299 -2.1703884266025093 44.869652023315432 17.273623685042065 38.857745622333731 -8.4443168653376723 39.004292019720999 15.726162973467593 25.227236856298248 3.7740485111289708 10.475639947891237 23.808006515502932 49.379541675668015 41.2739266099601 40.283199079686945 -13.109156683760304 -30.833765847342359 -5.6490524859678359 -16.911892768580053 47.510942210321844 0.74108227177206532 17.971602490345639 -20.700810156682206 12.519270646922729 19.498514133099647 -6.0257853783667095 25.012025543359613 17.797955967131116 18.745633055766426
leaf_weight=327 226 61 766 25 729 209 906 31 191 47 341 50 20 38 58 55 248 28 434 450 23 203 60 797 68 458 32 26 21 102
leaf_count=327 226 61 766 25 729 209 906 31 191 47 341 50 20 38 58 55 248 28 434 450 23 203 60 797 68 458 32 26 21 102
internal_value=0 10.1401 -11.95 6.22217 12.4383 24.0024 -0.698403 -1.52511 -2.45786 -6.78371 15.8216 -5.69764 -19.9768 20.4397 19.0424 19.0663 -20.6054 -0.905971 -10.2123 -11.3824 17.0333 8.00542 0.0775719 -18.1762 -2.15367 15.7611 17.8316 -1.27804 -10.6963 7.22123
internal_weight=0 3803 3227 2965 1562 838 1403 1378 1347 953 1268 1814 1413 825 787 629 1393 880 934 884 574 394 852 1066 294 551 490 792 269 443
internal_count=7030 3803 3227 2965 1562 838 1403 1378 1347 953 1268 1814 1413 825 787 629 1393 880 934 884 574 394 852 1066 294 551 490 792 269 443
is_linear=0
shrinkage=0.05


Tree=23
num_leaves=31
num_cat=0
split_feature=121 122 121 6 5 119 119 120 66 120 119 121 112 120 115 64 17 122 64 121 115 122 65 119 122 112 120 5 6 38
split_gain=3.0752e+08 7.70102e+07 5.93227e+07 4.18105e+07 3.35961e+07 3.83998e+07 2.82411e+07 2.46913e+07 2.20596e+07 1.83838e+07 1.61239e+07 1.60288e+07 1.39792e+07 1.14412e+07 1.12479e+07 1.11931e+07 1.17576e+07 1.08782e+07 9.76951e+06 9.65451e+06 1.00514e+07 8.7812e+06 8.59438e+06 8.43346e+06 9.54201e+06 7.98772e+06 7.9408e+06 7.77551e+06 7.32226e+06 7.14223e+06
threshold=1.0000000180025095e-35 -0.45833931660577626 -0.47861930960965893 1.0000000180025095e-35 1.0000000180025095e-35 2.5000000000000004 1.5000000000000002 98.500000000000014 1.0000000180025095e-35 1.0000000180025095e-35 1.0000000180025095e-35 -1.4262251581038143 0.49962696255560651 79.500000000000014 1.0000000180025095e-35 0.46833597407552274 1.0000000180025095e-35 0.59996842872353728 0.46833597407552274 1.4165923873786521 1.0000000180025095e-35 -0.092665582429283119 0.54228817451659939 1.0000000180025095e-35 1.4506527926660269 0.45445009889730031 20.500000000000004 0.40066414081447382 0.46534590924013286 1.0000000180025095e-35
decision_type=2 2 2 2 2 2 2 2 2 2 2 2 2 2 2 2 2 2 2 2 2 2 2 2 2 2 2 2 2 2
left_child=2 3 8 4 5 7 10 9 11 -2 -3 -1 19 14 26 16 23 22 21 20 -5 -13 29 -4 25 -25 -12 -6 -15 -8
right_child=1 6 15 12 27 -7 17 -9 -10 -11 13 18 -14 28 -16 -17 -18 -19 -20 -21 -22 -23 -24 24 -26 -27 -28 -29 -30 -31
leaf_value=-23.726707833218786 -4.2198293279016639 -6.0172472298485893 -11.318129093524739 26.289773659890059 41.546079069160555 -12.683493406295776 1.5521840478601565 44.510242323289845 28.770440321702225 13.484336069653782 20.548616804050496 -4.1555780715412567 0.2205455325151745 30.653654295263937 33.967725171540913 -19.428280247960771 -19.911420928864253 -15.663299778032872 -28.78282472903912 52.281842774035887 52.79968837738037 -15.070565072791661 -24.27358223438263 3.9653706047925166 -15.572742027502793 -14.363960597664118 3.4441326278410926 22.894555994293146 8.31811601697353 -17.914339182927058
leaf_weight=682 173 175 156 337 83 175 502 57 26 962 79 234 38 103 38 98 84 189 104 51 40 867 40 834 78 64 481 171 57 52
leaf_count=682 173 175 156 337 83 175 502 57 26 962 79 234 38 103 38 98 84 189 104 51 40 867 40 834 78 64 481 171 57 52
internal_value=0 9.63308 -11.3525 16.0848 12.2904 9.18754 1.78644 12.3985 -16.971 10.7858 7.66258 -17.6013 29.2841 10.8208 7.64338 -3.17276 -1.86269 -5.2154 -14.1344 31.8645 29.1025 -12.7508 -1.89106 -0.523389 1.202 2.65905 5.85709 28.9893 22.6966 -0.274999
internal_weight=0 3803 3227 2087 1621 1367 1716 1192 1913 1135 933 1887 466 758 598 1314 1216 783 1205 428 377 1101 594 1132 976 898 560 254 160 554
internal_count=7030 3803 3227 2087 1621 1367 1716 1192 1913 1135 933 1887 466 758 598 1314 1216 783 1205 428 377 1101 594 1132 976 898 560 254 160 554
is_linear=0
shrinkage=0.05


Tree=24
num_leaves=31
num_cat=0
split_feature=121 122 121 6 119 5 119 66 120 119 121 112 108 9 120 55 113 117 2 64 17 64 113 122 112 119 122 112 107 121
split_gain=2.77536e+08 7.08102e+07 5.35387e+07 3.48805e+07 3.11733e+07 2.35441e+07 3.01193e+07 1.99087e+07 1.91107e+07 1.83421e+07 1.4466e+07 1.41576e+07 1.51547e+07 1.42769e+07 1.41183e+07 1.40876e+07 1.37726e+07 1.19049e+07 1.02115e+07 1.01018e+07 1.06113e+07 8.81698e+06 8.75374e+06 8.33079e+06 8.12275e+06 7.61119e+06 8.61166e+06 7.20892e+06 7.14425e+06 6.39131e+06
threshold=1.0000000180025095e-35 -0.78612832202369709 -0.47861930960965893 1.0000000180025095e-35 1.5000000000000002 1.0000000180025095e-35 2.5000000000000004 1.0000000180025095e-35 1.0000000180025095e-35 1.0000000180025095e-35 -1.4262251581038143 0.42262916353093716 0.48591731649828723 0.55355533444323668 98.500000000000014 0.41071722352401463 0.4538486425142057 1.5000000000000002 1.0000000180025095e-35 0.46833597407552274 1.0000000180025095e-35 0.46833597407552274 0.31675924394226224 1.222806284762908 0.49962696255560651 1.0000000180025095e-35 1.4506527926660269 0.45445009889730031 0.36815107295586774 1.4165923873786521
decision_type=2 2 2 2 2 2 2 2 2 2 2 2 2 2 2 2 2 2 2 2 2 2 2 2 2 2 2 2 2 2
left_child=2 3 7 5 9 6 8 10 -2 -3 -1 12 13 -11 15 17 -16 -6 -19 20 25 23 -10 -12 29 -4 27 -27 -7 -5
right_child=1 4 19 24 14 28 -8 -9 22 11 21 -13 -14 -15 16 -17 -18 18 -20 -21 -22 -23 -24 -25 -26 26 -28 -29 -30 -31
leaf_value=-22.540372849314792 -3.2942099495845683 -3.9433754504256777 -10.752222497340961 30.379327740783204 8.4807684993743901 34.434772336088272 -10.851043968058967 27.331918364304762 15.909531305869306 16.679520356825787 -9.3414832542910897 -4.8896843950397209 -11.947140082323328 -25.076702190580825 47.685523722721982 4.5438127463977587 1.9752456410725914 -14.008270812699619 3.9212849687275133 -18.456866157298187 -18.91584999788375 -27.343683224457962 41.891360013625203 -18.937970196076161 1.3333817731766473 3.7671020843392373 -14.794104708616551 -13.645762628316881 8.0827127518192423 49.667750855988146
leaf_weight=682 136 225 156 272 90 151 143 26 697 812 783 112 53 21 26 304 45 484 95 98 84 104 34 318 21 834 78 64 31 51
leaf_count=682 136 225 156 272 90 151 143 26 697 812 783 112 53 21 26 304 45 484 95 98 84 104 34 318 21 834 78 64 31 51
internal_value=0 9.15142 -10.7849 17.4401 3.53545 13.3924 10.4094 -16.1225 13.9161 8.95262 -16.7212 11.86 13.9774 15.6268 -2.81052 -4.38118 18.7142 -8.43679 -11.0665 -3.01412 -1.76956 -13.4277 17.118 -12.1132 31.4658 -0.49722 1.1419 2.5261 29.9462 33.4249
internal_weight=0 3803 3227 1536 2267 1192 1010 1913 867 1223 1887 998 886 833 1044 973 71 669 579 1314 1216 1205 731 1101 344 1132 976 898 182 323
internal_count=7030 3803 3227 1536 2267 1192 1010 1913 867 1223 1887 998 886 833 1044 973 71 669 579 1314 1216 1205 731 1101 344 1132 976 898 182 323
is_linear=0
shrinkage=0.05


Tree=25
num_leaves=31
num_cat=0
split_feature=121 122 121 119 107 120 55 119 66 121 70 119 119 121 122 119 64 117 111 112 64 120 122 122 62 120 54 122 5 115
split_gain=2.50477e+08 6.53938e+07 4.83187e+07 4.08944e+07 2.17078e+07 1.94764e+07 2.01114e+07 1.9599e+07 1.79676e+07 1.60416e+07 1.64389e+07 1.53315e+07 1.35027e+07 1.30556e+07 1.29341e+07 9.5034e+06 9.11683e+06 1.043e+07 1.21945e+07 8.90006e+06 7.95732e+06 7.90014e+06 7.65831e+06 7.279e+06 6.9986e+06 8.24193e+06 6.79662e+06 6.55916e+06 6.25229e+06 6.09104e+06
threshold=1.0000000180025095e-35 -0.14994470926255651 -0.47861930960965893 1.5000000000000002 0.33408231184569859 98.500000000000014 0.36371982861282831 3.5000000000000004 1.0000000180025095e-35 0.46898653888449654 0.58336573174016204 1.5000000000000002 2.5000000000000004 -1.4262251581038143 -1.03113058493851 1.0000000180025095e-35 0.46833597407552274 12.500000000000002 1.0000000180025095e-35 0.45445009889730031 0.46833597407552274 90.500000000000014 -0.092665582429283119 0.59996842872353728 0.34870771858192745 6.5000000000000009 0.59504326398673701 0.97988122430559621 1.0000000180025095e-35 1.0000000180025095e-35
decision_type=2 2 2 2 2 2 2 2 2 2 2 2 2 2 2 2 2 2 2 2 2 2 2 2 2 2 2 2 2 2
left_child=2 3 8 4 9 6 7 12 13 21 14 15 -5 -1 -11 -3 17 19 26 24 22 -2 -15 -13 25 -4 -19 28 29 -17
right_child=1 11 16 5 -6 -7 -8 -9 -10 10 -12 23 -14 20 -16 27 -18 18 -20 -21 -22 -23 -24 -25 -26 -27 -28 -29 -30 -31
leaf_value=-21.413353575289776 7.7140910800752494 -7.495853767377227 -22.681104949712754 2.0714288010853914 4.5407183292212787 32.500813819422866 16.247289262310606 21.614617522433402 25.965322641225967 29.358909515484498 65.433381239573166 -2.7252789797406125 -13.217673142616031 -3.4807250253410427 17.507185144676512 5.5488386403511534 -17.534022690325369 -10.872698068365139 13.500287796846079 -13.585912200566884 -25.976499073322003 37.278565979003908 -13.673971748915788 -14.701373499158828 -3.4526318050112046 10.272353986920537 10.596830490827561 -2.8470591705597816 22.615778642677398 32.752679651433773
leaf_weight=682 235 134 20 483 222 66 271 96 26 467 24 386 206 234 454 318 98 470 67 74 104 25 867 189 175 370 40 122 83 22
leaf_count=682 235 134 20 483 222 66 271 96 26 467 24 386 206 234 454 318 98 470 67 74 104 25 867 189 175 370 40 122 83 22
internal_value=0 8.69385 -10.2457 13.2926 18.9083 6.15038 4.50348 0.449252 -15.3164 21.5552 24.5812 -0.65399 -2.49977 -15.8852 23.5167 4.4336 -2.86342 -1.68108 -6.5542 2.71922 -12.7563 10.5568 -11.5076 -6.66177 4.85476 8.58243 -9.18881 7.36671 10.3125 7.30909
internal_weight=0 3803 3227 2549 1427 1122 1056 785 1913 1205 945 1254 689 1887 921 679 1314 1216 577 639 1205 260 1101 575 565 390 510 545 423 340
internal_count=7030 3803 3227 2549 1427 1122 1056 785 1913 1205 945 1254 689 1887 921 679 1314 1216 577 639 1205 260 1101 575 565 390 510 545 423 340
is_linear=0
shrinkage=0.05


Tree=26
num_leaves=31
num_cat=0
split_feature=121 121 121 119 119 117 6 9 112 69 55 120 0 117 119 119 0 9 12 122 111 117 117 7 111 122 120 113 122 37
split_gain=2.26055e+08 6.0687e+07 4.38204e+07 3.37365e+07 2.20323e+07 1.81334e+07 1.65416e+07 1.60949e+07 1.70183e+07 1.58868e+07 1.87506e+07 1.46624e+07 1.36407e+07 1.26576e+07 1.50608e+07 1.20025e+07 1.10154e+07 1.23636e+07 1.4175e+07 8.62786e+06 8.59687e+06 7.00252e+06 1.34919e+07 6.82982e+06 6.5546e+06 6.2372e+06 6.17052e+06 5.98252e+06 6.69998e+06 5.62464e+06
threshold=1.0000000180025095e-35 1.1007237712139337 -0.79448792577437743 1.5000000000000002 1.0000000180025095e-35 1.0000000180025095e-35 0.41519605742087412 0.55355533444323668 0.42262916353093716 1.0000000180025095e-35 0.36033458805590679 98.500000000000014 0.29463616720246405 1.0000000180025095e-35 1.5000000000000002 1.5000000000000002 0.32813384844709476 0.55355533444323668 0.51246410867847725 -0.092665582429283119 1.0000000180025095e-35 12.500000000000002 2.5000000000000004 1.0000000180025095e-35 0.72899364942138101 -0.56137071103924596 17.500000000000004 0.33847343718655987 -0.94262884500051569 0.60499283235297807
decision_type=2 2 2 2 2 2 2 2 2 2 2 2 2 2 2 2 2 2 2 2 2 2 2 2 2 2 2 2 2 2
left_child=2 3 15 4 23 -5 20 8 12 10 11 -7 -6 -4 16 21 17 18 -15 29 27 22 -1 -2 -18 -12 -24 28 -3 -16
right_child=1 6 13 5 7 9 -8 -9 -10 -11 25 -13 -14 14 19 -17 24 -19 -20 -21 -22 -23 26 -25 -26 -27 -28 -29 -30 -31
leaf_value=-9.7458199521009838 -6.5565805109201278 15.358778369973104 14.363391594659715 41.475912757873537 19.779914778170085 -7.5120403575976171 32.32672099519575 -22.194376480579379 -3.3180115304773548 33.896964054722943 16.489582509509589 21.130165861008017 8.0992337772359395 9.9628618022851789 -2.218970824042453 -18.793242834549059 -10.159753445126363 -21.605709554884172 -11.174084982306066 -14.263049330601115 34.974402231736619 -21.50329510326117 2.1476146697998049 11.516806439792409 16.480811727523804 2.7549414413778681 36.93800636291504 39.265517056506617 -1.0975415639474357 -26.855580444335938
leaf_weight=191 226 480 84 25 723 906 209 32 131 31 118 47 382 399 316 1100 302 45 99 519 55 71 26 68 25 276 25 23 71 25
leaf_count=191 226 480 84 25 723 906 209 32 131 31 118 47 382 399 316 1100 302 45 99 519 55 71 26 68 25 276 25 23 71 25
internal_value=0 8.25916 -9.73337 4.90128 9.95599 -0.726267 20.1399 12.8154 13.7218 -1.49191 -2.30635 -6.09947 15.7419 -4.59102 -5.51135 -16.3351 -0.873028 3.49298 5.76094 -10.2036 16.0906 -7.69616 -3.6453 -2.37634 -8.12301 6.86836 19.2017 14.2812 13.2383 -4.02517
internal_weight=0 3803 3227 2965 1562 1403 838 1268 1236 1378 1347 953 1105 1814 1730 1413 870 543 498 860 629 313 242 294 327 394 51 574 551 341
internal_count=7030 3803 3227 2965 1562 1403 838 1268 1236 1378 1347 953 1105 1814 1730 1413 870 543 498 860 629 313 242 294 327 394 51 574 551 341
is_linear=0
shrinkage=0.05


Tree=27
num_leaves=31
num_cat=0
split_feature=122 121 121 119 120 119 70 115 120 35 117 118 119 62 120 108 9 118 122 119 119 117 107 9 12 108 121 2 118 55
split_gain=2.04401e+08 7.99401e+07 3.72305e+07 3.21031e+07 2.05002e+07 1.82486e+07 1.73191e+07 1.6784e+07 1.95164e+07 1.67232e+07 1.49049e+07 1.81221e+07 1.40648e+07 1.38067e+07 1.18589e+07 1.16547e+07 1.16523e+07 1.16119e+07 1.1581e+07 1.09831e+07 1.02853e+07 7.91087e+06 7.87326e+06 7.68748e+06 7.84256e+06 7.91812e+06 7.58913e+06 6.9197e+06 6.62745e+06 6.04264e+06
threshold=0.15639422103722941 0.46898653888449654 -0.47861930960965893 1.5000000000000002 98.500000000000014 1.5000000000000002 0.58336573174016204 1.0000000180025095e-35 20.500000000000004 0.55670466419587261 5.5000000000000009 2.5000000000000004 1.0000000180025095e-35 0.47051702448912408 3.5000000000000004 1.0000000180025095e-35 0.55355533444323668 2.5000000000000004 -1.1595404425574098 1.5000000000000002 1.0000000180025095e-35 1.0000000180025095e-35 0.46440532464009304 0.55355533444323668 0.49254224582326483 0.48591731649828723 -2.0579623904332509 0.6542162404714148 1.0000000180025095e-35 0.40933870227199232
decision_type=2 2 2 2 2 2 2 2 2 2 2 2 2 2 2 2 2 2 2 2 2 2 2 2 2 2 2 2 2 2
left_child=1 4 26 6 5 12 7 8 -3 17 11 27 -1 -10 -12 16 -14 22 -16 20 -4 -21 -7 24 25 -22 -2 -5 -20 -23
right_child=2 3 19 10 -6 9 -8 -9 13 -11 14 -13 15 -15 18 -17 -18 -19 28 21 23 29 -24 -25 -26 -27 -28 -29 -30 -31
leaf_value=-7.582926089934368 -23.443305900517633 27.763816253416589 -13.377970329485834 -12.582174131361027 20.574118993588186 -12.718235835523622 58.558241678167271 44.821273013523651 11.990074695122075 6.1628454930467527 -2.2875350901484488 16.547584759561641 11.284809789799986 51.248669417008117 26.911759859241855 -12.571726098427407 -20.676332626342774 7.6460303674573487 -10.511700796087583 14.232048432967241 7.5829759797510592 -13.893558337319064 6.9649931664900357 -22.550014190673831 -9.6502919361763393 -16.742326651679146 -14.174333250855637 13.120333344141642 12.500565201767319 -3.3401657459049967
leaf_weight=199 272 302 128 206 114 666 27 56 852 231 120 95 577 23 146 65 30 92 36 34 473 426 55 30 97 36 1174 30 239 199
leaf_count=199 272 302 128 206 114 666 27 56 852 231 120 95 577 23 146 65 30 92 36 34 473 426 55 30 97 36 1174 30 239 199
internal_value=0 7.07946 -10.2676 13.8403 -0.0245875 -1.25083 18.9444 18.077 16.8045 -5.70902 6.46506 -1.89214 4.09286 13.022 11.5782 7.55042 9.70518 -9.08221 15.5305 -4.52593 -0.44625 -9.25563 -11.2167 2.15636 3.37945 5.86252 -15.9179 -9.31491 9.48805 -10.5334
internal_weight=0 4161 2869 2132 2029 1915 1260 1233 1177 1044 872 331 871 875 541 672 607 813 421 1423 764 659 721 636 606 509 1446 236 275 625
internal_count=7030 4161 2869 2132 2029 1915 1260 1233 1177 1044 872 331 871 875 541 672 607 813 421 1423 764 659 721 636 606 509 1446 236 275 625
is_linear=0
shrinkage=0.05


Tree=28
num_leaves=31
num_cat=0
split_feature=121 122 121 6 122 5 119 70 6 120 111 120 122 119 17 64 117 115 119 120 121 115 113 120 117 117 119 120 107 6
split_gain=1.85451e+08 5.21406e+07 3.57891e+07 2.49381e+07 2.17983e+07 1.81646e+07 2.14227e+07 1.52236e+07 1.79292e+07 1.90346e+07 1.48769e+07 1.35394e+07 1.11626e+07 1.05122e+07 1.01529e+07 1.02257e+07 9.85587e+06 9.624e+06 7.70711e+06 7.34312e+06 6.69815e+06 6.67324e+06 6.57906e+06 6.45716e+06 6.14485e+06 1.19341e+07 5.9006e+06 5.64232e+06 5.3722e+06 5.30176e+06
threshold=1.0000000180025095e-35 -0.78612832202369709 -0.79448792577437743 1.0000000180025095e-35 0.39705911301746738 1.0000000180025095e-35 2.5000000000000004 1.0000000180025095e-35 1.0000000180025095e-35 98.500000000000014 1.0000000180025095e-35 1.0000000180025095e-35 1.242857207966664 1.5000000000000002 1.0000000180025095e-35 0.46833597407552274 12.500000000000002 1.0000000180025095e-35 1.0000000180025095e-35 5.5000000000000009 1.4165923873786521 1.0000000180025095e-35 0.31675924394226224 26.500000000000004 12.500000000000002 2.5000000000000004 1.5000000000000002 17.500000000000004 0.36815107295586774 0.49793313744990791
decision_type=2 2 2 2 2 2 2 2 2 2 2 2 2 2 2 2 2 2 2 2 2 2 2 2 2 2 2 2 2 2
left_child=2 3 13 5 7 6 11 8 9 10 -3 -2 14 24 15 18 -11 23 -4 -20 21 29 -13 -10 25 -1 -6 -27 -7 -5
right_child=1 4 12 20 26 28 -8 -9 17 16 -12 22 -14 -15 -16 -17 -18 -19 19 -21 -22 -23 -24 -25 -26 27 -28 -29 -30 -31
leaf_value=-8.6401743217756621 -2.9780317565974066 -1.988582680910767 -10.031553379855405 14.964575160846117 -1.0921317834207311 29.603167770664818 -9.3796690248942891 30.489633335703509 18.236360939823349 43.416510935013115 18.044134780004914 13.155416631275305 -13.933740357924549 -17.082625908526506 -16.028783219359642 -16.328153625552385 5.9762146264314655 37.30754288121274 -17.456325952529905 2.1340980211610274 43.175823742735624 47.722831902137173 35.679893593928391 5.446621291555072 -19.631286305440984 2.2771764315091647 -11.211996479829153 35.545231460571294 6.7517843246459961 29.164862135536652
leaf_weight=191 136 1014 173 150 317 151 143 59 174 39 102 697 252 1100 129 106 32 38 50 1104 51 26 34 228 71 26 264 25 31 117
leaf_count=191 136 1014 173 150 317 151 143 59 174 39 102 697 252 1100 129 106 32 38 50 1104 51 26 34 228 71 26 264 25 31 117
internal_value=0 7.48072 -8.81598 14.5933 2.66163 11.1707 8.55063 5.53979 4.63504 1.43939 -0.157635 11.508 -4.1687 -14.7821 -2.5933 -1.38382 26.542 13.256 -0.190076 1.28529 26.4527 23.5419 14.2031 10.9825 -6.69731 -2.90263 -5.69049 18.585 25.7109 21.1872
internal_weight=0 3803 3227 1536 2267 1192 1010 1686 1627 1187 1116 867 1814 1413 1562 1433 71 440 1327 1154 344 293 731 402 313 242 581 51 182 267
internal_count=7030 3803 3227 1536 2267 1192 1010 1686 1627 1187 1116 867 1814 1413 1562 1433 71 440 1327 1154 344 293 731 402 313 242 581 51 182 267
is_linear=0
shrinkage=0.05


Tree=29
num_leaves=31
num_cat=0
split_feature=122 121 121 119 120 70 71 91 115 120 117 118 62 65 120 115 122 5 119 118 122 117 117 120 120 120 55 2 118 5
split_gain=1.69681e+08 6.40455e+07 3.33044e+07 2.5933e+07 1.74663e+07 1.61491e+07 1.50398e+07 1.42607e+07 1.35452e+07 1.58491e+07 1.30854e+07 1.53166e+07 1.22564e+07 1.1679e+07 1.0204e+07 1.01582e+07 9.59301e+06 8.97095e+06 8.2435e+06 6.45936e+06 6.44024e+06 6.22221e+06 1.06877e+07 1.37995e+07 6.21087e+06 7.34445e+06 6.12117e+06 5.90629e+06 5.49238e+06 4.73475e+06
threshold=0.11900457680220651 0.46898653888449654 -0.47861930960965893 1.5000000000000002 98.500000000000014 0.58336573174016204 1.0000000180025095e-35 1.0000000180025095e-35 1.0000000180025095e-35 20.500000000000004 5.5000000000000009 2.5000000000000004 0.47051702448912408 0.54228817451659939 3.5000000000000004 1.0000000180025095e-35 -1.1595404425574098 1.0000000180025095e-35 1.0000000180025095e-35 2.5000000000000004 1.2868013407852013 12.500000000000002 2.5000000000000004 68.500000000000014 98.500000000000014 93.500000000000014 1.0000000180025095e-35 0.6542162404714148 1.0000000180025095e-35 1.0000000180025095e-35
decision_type=2 2 2 2 2 2 2 2 2 2 2 2 2 2 2 2 2 2 2 2 2 2 2 2 2 2 2 2 2 2
left_child=1 4 19 5 6 8 7 13 9 29 11 27 -11 18 -12 17 -16 20 -1 26 24 22 -21 -24 25 -4 -2 -5 -18 -3
right_child=2 3 15 10 -6 -7 -8 -9 -10 12 14 -13 -14 -15 16 -17 28 -19 -20 21 -22 -23 23 -25 -26 -27 -28 -29 -30 -31
leaf_value=-6.8184439473648375 -18.922709611073838 22.232320373106976 -4.4933638941757676 -11.694351505535407 19.376213956281944 57.05835079956055 -23.610369378748075 -11.064529796596617 40.482347706386022 10.884407805262509 -2.039923039476077 15.218887288139223 47.879677780814795 -17.418078766371075 24.842234080213391 16.462862511004431 -9.5294762931551258 5.3804956636191665 4.1843054469463743 -9.1615139548997018 -14.195155939628492 -17.347732210159304 -11.174606831868489 45.490364006974488 10.094618154906515 -22.153218790841482 -9.7543375482494383 12.05894568602244 11.683858449240567 38.465910230116414
leaf_weight=197 764 245 899 205 111 25 71 256 56 841 120 94 23 76 146 59 35 191 1253 251 212 165 21 22 67 63 239 30 238 55
leaf_count=197 764 245 899 205 111 25 71 256 56 841 120 94 23 76 146 59 35 191 1253 251 212 165 21 22 67 63 239 30 238 55
internal_value=0 6.61105 -9.12742 12.6528 0.110912 17.2779 -1.04313 -0.143991 16.4628 15.3072 6.0189 -1.8389 11.8692 1.68803 10.8152 -3.86937 14.4969 -4.70709 2.68945 -14.4898 -6.25965 -9.57689 -5.21571 17.8168 -4.62473 -5.64988 -16.738 -8.66202 8.9642 25.2085
internal_weight=0 4077 2953 2113 1964 1245 1853 1782 1220 1164 868 329 864 1526 539 1491 419 1432 1450 1462 1241 459 294 43 1029 962 1003 235 273 300
internal_count=7030 4077 2953 2113 1964 1245 1853 1782 1220 1164 868 329 864 1526 539 1491 419 1432 1450 1462 1241 459 294 43 1029 962 1003 235 273 300
is_linear=0
shrinkage=0.05


Tree=30
num_leaves=31
num_cat=0
split_feature=122 121 121 119 120 5 115 0 87 119 35 117 118 119 108 9 119 120 118 119 122 70 9 12 108 117 107 121 55 2
split_gain=1.53137e+08 5.7801e+07 3.00573e+07 2.34045e+07 1.57633e+07 1.47481e+07 1.40751e+07 1.55913e+07 1.57966e+07 1.38029e+07 1.29892e+07 1.18096e+07 1.38232e+07 1.07934e+07 1.015e+07 1.0047e+07 9.74727e+06 9.20909e+06 8.93401e+06 8.7036e+06 8.65769e+06 7.26319e+06 7.10472e+06 7.21826e+06 7.5003e+06 6.66639e+06 6.46622e+06 6.10363e+06 5.41588e+06 5.33043e+06
threshold=0.11900457680220651 0.46898653888449654 -0.47861930960965893 1.5000000000000002 98.500000000000014 1.0000000180025095e-35 1.0000000180025095e-35 0.4506076953402724 0.42901867539531374 1.5000000000000002 0.55670466419587261 5.5000000000000009 2.5000000000000004 1.0000000180025095e-35 1.0000000180025095e-35 0.55355533444323668 1.5000000000000002 3.5000000000000004 2.5000000000000004 1.0000000180025095e-35 -1.1595404425574098 0.58336573174016204 0.55355533444323668 0.49254224582326483 0.48591731649828723 1.0000000180025095e-35 0.46440532464009304 -2.0579623904332509 0.40933870227199232 0.6542162404714148
decision_type=2 2 2 2 2 2 2 2 2 2 2 2 2 2 2 2 2 2 2 2 2 2 2 2 2 2 2 2 2 2
left_child=1 4 27 5 9 6 7 8 -3 13 18 12 29 -1 15 -15 19 -13 26 -4 -19 -7 23 24 -21 -18 -11 -2 -27 -5
right_child=2 3 16 11 -6 21 -8 -9 -10 10 -12 17 -14 14 -16 -17 25 20 -20 22 -22 -23 -24 -25 -26 28 -28 -29 -30 -31
leaf_value=-6.4775218299802795 -20.462240233628648 6.2618744378378937 -11.545595008488055 -11.109634072606157 18.407403290379158 25.341428557555467 38.458229732513431 27.433291337521453 22.467402761992144 -11.172725078995413 5.7782005739641624 -1.9379268344243368 14.457942957288408 10.517340562133676 -11.987651538848878 -19.681331492703539 12.868393234411876 23.600122507957565 7.116584887287833 7.3863912582633988 8.5159901582496076 54.205433303833018 -21.01366188295426 -8.8488846881389627 -15.649328402469033 -12.375932972891766 6.6819397371465516 -12.206788822872845 -2.5687259793857447 11.455998741388321
leaf_weight=197 276 646 135 205 111 170 56 152 196 650 222 120 94 548 64 29 36 146 88 504 273 25 31 100 38 440 55 1186 207 30
leaf_count=197 276 646 135 205 111 170 56 152 196 650 222 120 94 548 64 29 36 146 88 504 273 25 31 100 38 440 55 1186 207 30
internal_value=0 6.2805 -8.67105 12.0202 0.105366 16.414 14.0689 12.6948 10.0342 -0.990978 -4.91206 5.71795 -1.74696 3.75831 6.90411 8.99956 -3.67591 10.2745 -7.9048 0.0409646 13.772 29.0419 2.36516 3.49405 5.77134 -8.07302 -9.77981 -13.7653 -9.23823 -8.22891
internal_weight=0 4077 2953 2113 1964 1245 1050 994 842 1853 1015 868 329 838 641 577 1491 539 793 808 419 195 673 642 542 683 705 1462 647 235
internal_count=7030 4077 2953 2113 1964 1245 1050 994 842 1853 1015 868 329 838 641 577 1491 539 793 808 419 195 673 642 542 683 705 1462 647 235
is_linear=0
shrinkage=0.05


Tree=31
num_leaves=31
num_cat=0
split_feature=121 122 121 6 122 5 119 70 6 120 111 117 119 120 113 118 0 9 12 115 9 121 35 87 122 106 115 111 119 107
split_gain=1.38935e+08 4.1065e+07 2.64162e+07 1.93046e+07 1.61145e+07 1.39015e+07 1.62407e+07 1.20782e+07 1.36282e+07 1.584e+07 1.16658e+07 1.00104e+07 1.08073e+07 9.79393e+06 8.91441e+06 8.75055e+06 8.16773e+06 8.97426e+06 1.09854e+07 7.07336e+06 6.15654e+06 6.15643e+06 6.12044e+06 5.60237e+06 5.5336e+06 5.30958e+06 5.07266e+06 4.97949e+06 4.7148e+06 4.63908e+06
threshold=1.0000000180025095e-35 -0.78612832202369709 -0.79448792577437743 1.0000000180025095e-35 0.39705911301746738 1.0000000180025095e-35 2.5000000000000004 1.0000000180025095e-35 1.0000000180025095e-35 98.500000000000014 1.0000000180025095e-35 1.0000000180025095e-35 1.5000000000000002 1.0000000180025095e-35 0.37353906966834532 2.5000000000000004 0.32813384844709476 0.55355533444323668 0.51246410867847725 1.0000000180025095e-35 0.51550199003182617 1.4165923873786521 0.6583928835439592 0.5594810964493504 0.14477049744084924 1.0000000180025095e-35 1.0000000180025095e-35 0.72899364942138101 1.5000000000000002 0.36815107295586774
decision_type=2 2 2 2 2 2 2 2 2 2 2 2 2 2 2 2 2 2 2 2 2 2 2 2 2 2 2 2 2 2
left_child=2 3 15 5 7 6 13 8 9 10 -3 -4 16 -2 -11 -1 17 18 -13 23 -15 26 25 -10 -17 -14 -5 -18 -6 -7
right_child=1 4 11 21 28 29 -8 -9 19 14 -12 12 22 20 -16 24 27 -19 -20 -21 -22 -23 -24 -25 -26 -27 -28 -29 -30 -31
